#############################################################################
## Copyright (c) 1996, Carnegie Mellon University, Cambridge University,
## Ronald Rosenfeld and Philip Clarkson
#############################################################################
=============================================================================
===============  This file was produced by the CMU-Cambridge  ===============
===============     Statistical Language Modeling Toolkit     ===============
=============================================================================
This is a 3-gram language model, based on a vocabulary of 107 words,
  which begins "15TH", "4TH", "7TH"...
This is an OPEN-vocabulary model (type 1)
  (OOVs were mapped to UNK, which is treated as any other vocabulary word)
Good-Turing discounting was applied.
1-gram frequency of frequency : 0 
2-gram frequency of frequency : 54 45 13 8 53 4 34 
3-gram frequency of frequency : 368 363 91 24 121 35 44 
1-gram discounting ratios : 
2-gram discounting ratios : 
3-gram discounting ratios : 
This file is in the ARPA-standard format introduced by Doug Paul.

p(wd3|wd1,wd2)= if(trigram exists)           p_3(wd1,wd2,wd3)
                else if(bigram w1,w2 exists) bo_wt_2(w1,w2)*p(wd3|wd2)
                else                         p(wd3|w2)

p(wd2|wd1)= if(bigram exists) p_2(wd1,wd2)
            else              bo_wt_1(wd1)*p_1(wd2)

All probs and back-off weights (bo_wt) are given in log10 form.

Data formats:

Beginning of data mark: \data\
ngram 1=nr            # number of 1-grams
ngram 2=nr            # number of 2-grams
ngram 3=nr            # number of 3-grams

\1-grams:
p_1     wd_1 bo_wt_1
\2-grams:
p_2     wd_1 wd_2 bo_wt_2
\3-grams:
p_3     wd_1 wd_2 wd_3 

end of data mark: \end\

\data\
ngram 1=108
ngram 2=596
ngram 3=1853

\1-grams:
-99.0000 <UNK>	0.0000
-2.0379 15TH	-2.6469
-2.0379 4TH	-2.6550
-2.0379 7TH	-2.6550
-0.9212 </s>	-3.7739
-99.0000 <s>	-3.5952
-1.2723 ADEMÁS	-3.3289
-2.9168 AHORA	-1.7369
-4.3939 ALGO	-0.6020
-2.0379 ASTER	-2.6509
-2.1386 ATESTADA	-2.4371
-2.7918 ATESTADAS	-1.8661
-2.6457 ATESTADO	-1.9076
-3.4908 ATESTADOS	-1.2445
-1.7875 AUTOPISTA	-2.8123
-2.6157 AUTOPISTAS	-2.0561
-1.5607 AVENUE	-3.0449
-2.0379 BOULEVARD	-2.5742
-2.0379 BRIGHTON	-2.6550
-2.0322 BUENA	-2.4831
-2.9960 BUENAS	-1.6605
-2.6015 BUENO	-1.9472
-3.6949 BUENOS	-1.0237
-1.7875 CALLE	-2.8123
-2.6157 CALLES	-2.0561
-1.7769 CAMINO	-2.8287
-2.6157 CAMINOS	-2.0600
-1.7875 CARRETERA	-2.8123
-2.6157 CARRETERAS	-2.0561
-2.1386 CONGESTIONADA	-2.4371
-2.7918 CONGESTIONADAS	-1.8661
-2.6457 CONGESTIONADO	-1.9076
-3.4908 CONGESTIONADOS	-1.2445
-4.3939 CORRECTO	-0.5466
-1.7368 COURT	-2.8738
-2.6157 CREE	-2.0853
-2.7918 CREES	-1.9120
-4.0929 CREO	-0.7763
-1.8164 CUÁL	-2.8087
-2.4854 CUÁLES	-2.2194
-1.8874 DE	-2.8032
-2.0379 DEARBORN	-2.6509
-1.1244 DEL	-3.5212
-4.0929 DEMÁS	-0.7227
-3.1151 EL	-1.5919
-2.0379 ELMWOOD	-2.6469
-1.2281 ES	-3.4050
-4.3939 FALSO	-0.5466
-1.9300 FÁCIL	-2.7607
-2.9168 FÁCILES	-1.7867
-2.0379 GUINNESS	-2.6550
-1.7311 HAY	-2.9090
-2.0210 INTERMITENTE	-2.4939
-2.7172 INTERMITENTES	-1.9414
-2.7407 LA	-1.9505
-2.0379 LANE	-2.5742
-2.3625 LAS	-2.3391
-2.1386 LENTA	-2.4371
-2.7918 LENTAS	-1.8661
-2.6457 LENTO	-1.9076
-3.4908 LENTOS	-1.2445
-2.0322 LISA	-2.4831
-2.9960 LISAS	-1.6605
-2.5426 LISO	-2.0004
-3.6949 LISOS	-1.0237
-3.0615 LOS	-1.6522
-2.0379 MC	-2.6550
-2.0379 MILL	-2.6550
-1.5200 MÁS	-3.1364
-3.7918 NO	-0.9557
-4.3939 NO,	-0.5756
-2.0379 O	-2.5742
-4.3939 OKAY	-0.5466
-2.0379 OLD	-2.6550
-1.3183 OTRA	-3.3407
-2.4396 OTRAS	-2.2642
-2.0173 OTRO	-2.6721
-3.1386 OTROS	-1.5787
-2.0379 PAERDEGAT	-2.6550
-4.0929 PARECE	-0.7763
-2.0379 PLACE	-2.5742
-2.3769 QUE	-2.2950
-1.3040 QUÉ	-3.2294
-2.0379 ROAD	-2.5742
-1.7875 RUTA	-2.8123
-2.6157 RUTAS	-2.0561
-2.0322 RÁPIDA	-2.4831
-2.9960 RÁPIDAS	-1.6605
-2.6086 RÁPIDO	-1.9408
-3.6949 RÁPIDOS	-1.0237
-4.3939 SIGA	-0.5466
-2.0379 SKIDMORE	-2.6550
-1.9723 SON	-2.7300
-2.0379 STREET	-2.5742
-3.9168 SÍ	-0.8476
-1.8874 TRANSITAR	-2.6242
-2.7037 UN	-1.9927
-2.0047 UNA	-2.6585
-2.7407 UNAS	-1.9770
-3.4396 UNOS	-1.3000
-2.6157 USTED	-2.0845
-1.7875 VÍA	-2.8123
-2.6157 VÍAS	-2.0561
-4.3939 Y	-0.5782
-2.1386 ÁSPERA	-2.4371
-2.7918 ÁSPERAS	-1.8661
-2.6457 ÁSPERO	-1.9076
-3.4908 ÁSPEROS	-1.2445

\2-grams:
-0.0010 15TH AVENUE -2.1815
-0.0010 4TH LANE 0.0019
-0.0010 7TH STREET 0.0019
-0.0001 </s> <s> 0.0026
-2.2323 <s> 15TH 1.1149
-3.2992 <s> ALGO 0.1249
-2.2323 <s> ASTER 1.1149
-2.2323 <s> AVENUE -1.3681
-2.2323 <s> BRIGHTON 1.1149
-3.2992 <s> BUENO -0.3057
-1.6936 <s> CREE 0.0036
-1.8679 <s> CREES 0.0053
-3.0774 <s> CREO 0.0792
-0.8972 <s> CUÁL 0.0040
-1.5642 <s> CUÁLES 0.0183
-2.2323 <s> DEARBORN 1.1149
-2.2323 <s> ELMWOOD 1.1149
-1.2436 <s> ES -2.0428
-0.8738 <s> HAY -2.0266
-2.3614 <s> LAS 0.9294
-2.9982 <s> LOS 0.8751
-2.2323 <s> MC 1.1149
-3.0774 <s> NO 0.3424
-3.2992 <s> NO, 0.1249
-3.2992 <s> OKAY 0.1249
-2.2323 <s> OLD 1.1149
-1.0011 <s> OTRA 0.6024
-2.1136 <s> OTRAS 0.6068
-1.6972 <s> OTRO 0.6002
-2.7763 <s> OTROS 0.5798
-2.2323 <s> PAERDEGAT 1.1149
-3.0774 <s> PARECE 0.0792
-0.3852 <s> QUÉ 0.0037
-3.2992 <s> SIGA 0.1249
-2.2323 <s> SKIDMORE 1.1149
-1.9910 <s> SON -1.5229
-3.2992 <s> SÍ 0.4260
-3.2992 <s> Y 0.1249
-2.5780 ADEMÁS </s> 2.9288
-0.0013 ADEMÁS DEL 0.1501
-0.0071 AHORA </s> 1.9885
-0.1249 ALGO DEMÁS 0.3010
-0.0010 ASTER COURT 0.3015
-0.7758 ATESTADA </s> 1.9885
-0.2579 ATESTADA ADEMÁS 0.2168
-0.5568 ATESTADA DEL 1.5675
-0.1047 ATESTADAS </s> 1.9543
-1.1461 ATESTADAS AHORA 1.0142
-0.8829 ATESTADAS LAS 1.3030
-1.7993 ATESTADO 15TH 2.3579
-0.4669 ATESTADO </s> 2.1404
-0.4876 ATESTADO ADEMÁS 0.9072
-1.7993 ATESTADO ASTER 2.3579
-1.7993 ATESTADO AVENUE -0.1251
-1.7993 ATESTADO BRIGHTON 2.3579
-1.7993 ATESTADO DEARBORN 2.3579
-0.7782 ATESTADO DEL 2.2496
-1.7993 ATESTADO ELMWOOD 2.3579
-1.7993 ATESTADO MC 2.3579
-1.7993 ATESTADO OLD 2.3579
-1.7993 ATESTADO PAERDEGAT 2.3579
-1.7993 ATESTADO SKIDMORE 2.3579
-0.1549 ATESTADOS </s> 2.6277
-1.0000 ATESTADOS AHORA 1.4914
-0.8239 ATESTADOS LOS 1.1761
-1.1290 AUTOPISTA ADEMÁS 0.7347
-1.3580 AUTOPISTA ATESTADA -1.0038
-1.1662 AUTOPISTA BUENA -1.0810
-1.3580 AUTOPISTA CONGESTIONADA -1.0038
-0.3906 AUTOPISTA ES -1.9797
-1.1662 AUTOPISTA FÁCIL 1.0182
-1.5921 AUTOPISTA HAY -1.2608
-1.3580 AUTOPISTA INTERMITENTE -1.0220
-1.3580 AUTOPISTA LENTA -1.0038
-1.1662 AUTOPISTA LISA -1.0810
-1.1662 AUTOPISTA RÁPIDA -1.0810
-1.3580 AUTOPISTA ÁSPERA -1.0038
-1.3457 AUTOPISTAS </s> 2.9957
-1.3457 AUTOPISTAS AHORA 1.0142
-1.1696 AUTOPISTAS ATESTADAS -0.2852
-1.2208 AUTOPISTAS BUENAS 0.8129
-1.1696 AUTOPISTAS CONGESTIONADAS -0.2852
-1.2208 AUTOPISTAS FÁCILES 0.8893
-1.1696 AUTOPISTAS INTERMITENTES -0.2967
-1.1696 AUTOPISTAS LENTAS -0.2852
-1.2208 AUTOPISTAS LISAS 0.8129
-1.2208 AUTOPISTAS RÁPIDAS 0.8129
-0.4904 AUTOPISTAS SON -1.3236
-1.1696 AUTOPISTAS ÁSPERAS -0.2852
-0.2254 AVENUE </s> 0.8638
-1.1487 AVENUE ES -1.2645
-0.4774 AVENUE O 0.0019
-0.0503 BOULEVARD </s> 1.1643
-0.9697 BOULEVARD ES -0.9680
-0.0010 BRIGHTON 4TH 0.0010
-1.8976 BUENA 15TH 1.8808
-0.6305 BUENA </s> 1.7285
-0.3726 BUENA ADEMÁS 0.2168
-1.8976 BUENA ASTER 1.8808
-1.8976 BUENA AVENUE -0.6022
-1.8976 BUENA BRIGHTON 1.8808
-1.8976 BUENA DEARBORN 1.8808
-0.6715 BUENA DEL 1.5675
-1.8976 BUENA ELMWOOD 1.8808
-1.8976 BUENA MC 1.8808
-1.8976 BUENA OLD 1.8808
-1.8976 BUENA PAERDEGAT 1.8808
-1.8976 BUENA SKIDMORE 1.8808
-0.0084 BUENAS </s> 2.0663
-1.6628 BUENO 15TH 2.1818
-0.4867 BUENO </s> 2.1206
-0.5271 BUENO ADEMÁS 0.9072
-1.6628 BUENO ASTER 2.1818
-1.6628 BUENO AVENUE -0.3012
-1.6628 BUENO BRIGHTON 2.1818
-1.6628 BUENO DEARBORN 2.1818
-0.8177 BUENO DEL 2.2496
-1.6628 BUENO ELMWOOD 2.1818
-1.6628 BUENO MC 2.1818
-1.6628 BUENO OLD 2.1818
-1.6628 BUENO PAERDEGAT 2.1818
-1.6628 BUENO SKIDMORE 2.1818
-0.0378 BUENOS </s> 2.7325
-1.1290 CALLE ADEMÁS 0.7347
-1.3580 CALLE ATESTADA -1.0038
-1.1662 CALLE BUENA -1.0810
-1.3580 CALLE CONGESTIONADA -1.0038
-0.3906 CALLE ES -1.9797
-1.1662 CALLE FÁCIL 1.0182
-1.5921 CALLE HAY -1.2608
-1.3580 CALLE INTERMITENTE -1.0220
-1.3580 CALLE LENTA -1.0038
-1.1662 CALLE LISA -1.0810
-1.1662 CALLE RÁPIDA -1.0810
-1.3580 CALLE ÁSPERA -1.0038
-1.3457 CALLES </s> 2.9957
-1.3457 CALLES AHORA 1.0142
-1.1696 CALLES ATESTADAS -0.2852
-1.2208 CALLES BUENAS 0.8129
-1.1696 CALLES CONGESTIONADAS -0.2852
-1.2208 CALLES FÁCILES 0.8893
-1.1696 CALLES INTERMITENTES -0.2967
-1.1696 CALLES LENTAS -0.2852
-1.2208 CALLES LISAS 0.8129
-1.2208 CALLES RÁPIDAS 0.8129
-0.4904 CALLES SON -1.3236
-1.1696 CALLES ÁSPERAS -0.2852
-1.1400 CAMINO ADEMÁS 0.7347
-1.3690 CAMINO ATESTADO -1.0792
-1.1771 CAMINO BUENO -0.9507
-1.3690 CAMINO CONGESTIONADO -1.0792
-0.4016 CAMINO ES -2.1140
-1.1771 CAMINO FÁCIL 1.0182
-1.6031 CAMINO HAY -1.2608
-1.3690 CAMINO INTERMITENTE -1.0220
-1.3690 CAMINO LENTO -1.0792
-1.1771 CAMINO LISO -0.8975
-1.6031 CAMINO MÁS -1.3031
-1.1771 CAMINO RÁPIDO -0.9571
-1.3690 CAMINO ÁSPERO -1.0792
-1.3457 CAMINOS </s> 2.9957
-1.3457 CAMINOS AHORA 1.0142
-1.1696 CAMINOS ATESTADOS -0.4314
-1.2208 CAMINOS BUENOS 0.1761
-1.1696 CAMINOS CONGESTIONADOS -0.4314
-1.2208 CAMINOS FÁCILES 0.8893
-1.1696 CAMINOS INTERMITENTES -0.2967
-1.1696 CAMINOS LENTOS -0.4314
-1.2208 CAMINOS LISOS 0.1761
-1.2208 CAMINOS RÁPIDOS 0.1761
-0.4904 CAMINOS SON -1.5304
-1.1696 CAMINOS ÁSPEROS -0.4314
-1.1290 CARRETERA ADEMÁS 0.7347
-1.3580 CARRETERA ATESTADA -1.0038
-1.1662 CARRETERA BUENA -1.0810
-1.3580 CARRETERA CONGESTIONADA -1.0038
-0.3906 CARRETERA ES -1.9797
-1.1662 CARRETERA FÁCIL 1.0182
-1.5921 CARRETERA HAY -1.2608
-1.3580 CARRETERA INTERMITENTE -1.0220
-1.3580 CARRETERA LENTA -1.0038
-1.1662 CARRETERA LISA -1.0810
-1.1662 CARRETERA RÁPIDA -1.0810
-1.3580 CARRETERA ÁSPERA -1.0038
-1.3457 CARRETERAS </s> 2.9957
-1.3457 CARRETERAS AHORA 1.0142
-1.1696 CARRETERAS ATESTADAS -0.2852
-1.2208 CARRETERAS BUENAS 0.8129
-1.1696 CARRETERAS CONGESTIONADAS -0.2852
-1.2208 CARRETERAS FÁCILES 0.8893
-1.1696 CARRETERAS INTERMITENTES -0.2967
-1.1696 CARRETERAS LENTAS -0.2852
-1.2208 CARRETERAS LISAS 0.8129
-1.2208 CARRETERAS RÁPIDAS 0.8129
-0.4904 CARRETERAS SON -1.3236
-1.1696 CARRETERAS ÁSPERAS -0.2852
-0.7758 CONGESTIONADA </s> 1.9885
-0.2579 CONGESTIONADA ADEMÁS 0.2168
-0.5568 CONGESTIONADA DEL 1.5675
-0.1047 CONGESTIONADAS </s> 1.9543
-1.1461 CONGESTIONADAS AHORA 1.0142
-0.8829 CONGESTIONADAS LAS 1.3030
-1.7993 CONGESTIONADO 15TH 2.3579
-0.4669 CONGESTIONADO </s> 2.1404
-0.4876 CONGESTIONADO ADEMÁS 0.9072
-1.7993 CONGESTIONADO ASTER 2.3579
-1.7993 CONGESTIONADO AVENUE -0.1251
-1.7993 CONGESTIONADO BRIGHTON 2.3579
-1.7993 CONGESTIONADO DEARBORN 2.3579
-0.7782 CONGESTIONADO DEL 2.2496
-1.7993 CONGESTIONADO ELMWOOD 2.3579
-1.7993 CONGESTIONADO MC 2.3579
-1.7993 CONGESTIONADO OLD 2.3579
-1.7993 CONGESTIONADO PAERDEGAT 2.3579
-1.7993 CONGESTIONADO SKIDMORE 2.3579
-0.1549 CONGESTIONADOS </s> 2.6277
-1.0000 CONGESTIONADOS AHORA 1.4914
-0.8239 CONGESTIONADOS LOS 1.1761
-0.1249 CORRECTO </s> 3.2967
-0.0494 COURT </s> 0.8638
-0.9727 COURT ES -1.2645
-0.0036 CREE USTED 0.0036
-0.0053 CREES QUE -0.6016
-0.0792 CREO QUE -0.6790
-0.8112 CUÁL AUTOPISTA -1.8451
-0.8112 CUÁL CALLE -1.8451
-0.8112 CUÁL CAMINO -1.8524
-0.8112 CUÁL CARRETERA -1.8451
-1.1427 CUÁL ES -1.6436
-0.8112 CUÁL RUTA -1.8451
-0.8112 CUÁL VÍA -1.8451
-1.2304 CUÁLES AUTOPISTAS -0.8304
-1.2304 CUÁLES CALLES -0.8304
-1.2304 CUÁLES CAMINOS -0.8304
-1.2304 CUÁLES CARRETERAS -0.8304
-1.2304 CUÁLES RUTAS -0.8304
-0.1930 CUÁLES SON -1.8151
-1.2304 CUÁLES VÍAS -0.8304
-0.0007 DE TRANSITAR 0.0087
-0.0010 DEARBORN COURT 0.3015
-1.0001 DEL 15TH 0.0873
-1.0001 DEL ASTER 0.0873
-1.0001 DEL AVENUE -2.3958
-1.0001 DEL BRIGHTON 0.0873
-1.0001 DEL DEARBORN 0.0873
-1.0001 DEL ELMWOOD 0.0873
-1.0001 DEL MC 0.0873
-1.0001 DEL OLD 0.0873
-1.0001 DEL PAERDEGAT 0.0873
-1.0001 DEL SKIDMORE 0.0873
-0.0792 DEMÁS </s> 3.0749
-0.2906 EL CAMINO -1.3113
-0.3340 EL MÁS -1.0273
-0.0010 ELMWOOD AVENUE -2.1815
-1.6509 ES ATESTADA -1.2670
-1.9389 ES ATESTADO -1.0544
-1.6509 ES BUENA -1.3533
-2.0902 ES BUENO -0.9563
-1.6509 ES CONGESTIONADA -1.2670
-1.9389 ES CONGESTIONADO -1.0544
-2.9933 ES CORRECTO 0.1249
-1.8793 ES EL 0.0217
-2.9933 ES FALSO 0.1249
-1.5210 ES FÁCIL 0.8170
-1.4748 ES INTERMITENTE -1.4613
-1.5114 ES LA 0.0047
-1.6509 ES LENTA -1.2670
-1.9389 ES LENTO -1.0544
-1.6509 ES LISA -1.3533
-2.0902 ES LISO -0.9795
-0.3340 ES MÁS 0.0434
-1.6509 ES RÁPIDA -1.3533
-2.0902 ES RÁPIDO -0.9627
-1.4748 ES UN 0.0044
-0.7793 ES UNA 0.0044
-1.6509 ES ÁSPERA -1.2670
-1.9389 ES ÁSPERO -1.0544
-0.1249 FALSO </s> 3.2967
-0.0007 FÁCIL DE 0.0432
-0.0071 FÁCILES DE 1.0236
-0.0010 GUINNESS BOULEVARD 0.0019
-0.8795 HAY ADEMÁS 1.3332
-2.1913 HAY AUTOPISTAS -0.5988
-2.1913 HAY CALLES -0.5988
-2.1913 HAY CAMINOS -0.5988
-2.1913 HAY CARRETERAS -0.5988
-0.1942 HAY OTRA 0.6024
-1.3067 HAY OTRAS 0.6068
-0.8902 HAY OTRO 0.6002
-1.9694 HAY OTROS 0.5798
-2.1913 HAY RUTAS -0.5988
-2.1913 HAY VÍAS -0.5988
-2.3856 INTERMITENTE 15TH 2.3579
-0.6738 INTERMITENTE </s> 1.7610
-0.3046 INTERMITENTE ADEMÁS 0.1380
-2.3856 INTERMITENTE ASTER 2.3579
-2.3856 INTERMITENTE AVENUE -0.1251
-2.3856 INTERMITENTE BRIGHTON 2.3579
-2.3856 INTERMITENTE DEARBORN 2.3579
-0.6039 INTERMITENTE DEL 1.4890
-2.3856 INTERMITENTE ELMWOOD 2.3579
-2.3856 INTERMITENTE MC 2.3579
-2.3856 INTERMITENTE OLD 2.3579
-2.3856 INTERMITENTE PAERDEGAT 2.3579
-2.3856 INTERMITENTE SKIDMORE 2.3579
-0.1079 INTERMITENTES </s> 1.8818
-1.1549 INTERMITENTES AHORA 0.9473
-0.9586 INTERMITENTES LAS 1.3030
-1.5229 INTERMITENTES LOS 1.1761
-0.0047 LA MÁS -1.3055
-0.0503 LANE </s> 1.1643
-0.9697 LANE ES -0.9680
-0.7009 LAS AUTOPISTAS 0.4804
-0.7009 LAS CALLES 0.4804
-0.7009 LAS CARRETERAS 0.4804
-0.7009 LAS RUTAS 0.4804
-0.7009 LAS VÍAS 0.4804
-0.7758 LENTA </s> 1.9885
-0.2579 LENTA ADEMÁS 0.2168
-0.5568 LENTA DEL 1.5675
-0.1047 LENTAS </s> 1.9543
-1.1461 LENTAS AHORA 1.0142
-0.8829 LENTAS LAS 1.3030
-1.7993 LENTO 15TH 2.3579
-0.4669 LENTO </s> 2.1404
-0.4876 LENTO ADEMÁS 0.9072
-1.7993 LENTO ASTER 2.3579
-1.7993 LENTO AVENUE -0.1251
-1.7993 LENTO BRIGHTON 2.3579
-1.7993 LENTO DEARBORN 2.3579
-0.7782 LENTO DEL 2.2496
-1.7993 LENTO ELMWOOD 2.3579
-1.7993 LENTO MC 2.3579
-1.7993 LENTO OLD 2.3579
-1.7993 LENTO PAERDEGAT 2.3579
-1.7993 LENTO SKIDMORE 2.3579
-0.1549 LENTOS </s> 2.6277
-1.0000 LENTOS AHORA 1.4914
-0.8239 LENTOS LOS 1.1761
-1.8976 LISA 15TH 1.8808
-0.6305 LISA </s> 1.7285
-0.3726 LISA ADEMÁS 0.2168
-1.8976 LISA ASTER 1.8808
-1.8976 LISA AVENUE -0.6022
-1.8976 LISA BRIGHTON 1.8808
-1.8976 LISA DEARBORN 1.8808
-0.6715 LISA DEL 1.5675
-1.8976 LISA ELMWOOD 1.8808
-1.8976 LISA MC 1.8808
-1.8976 LISA OLD 1.8808
-1.8976 LISA PAERDEGAT 1.8808
-1.8976 LISA SKIDMORE 1.8808
-0.0084 LISAS </s> 2.0663
-1.5911 LISO 15TH 2.0569
-0.4688 LISO </s> 2.0496
-0.5803 LISO ADEMÁS 0.9072
-1.5911 LISO ASTER 2.0569
-1.5911 LISO AVENUE -0.4261
-1.5911 LISO BRIGHTON 2.0569
-1.5911 LISO DEARBORN 2.0569
-0.8709 LISO DEL 2.2496
-1.5911 LISO ELMWOOD 2.0569
-1.5911 LISO MC 2.0569
-1.5911 LISO OLD 2.0569
-1.5911 LISO PAERDEGAT 2.0569
-1.5911 LISO SKIDMORE 2.0569
-0.0378 LISOS </s> 2.7325
-0.0098 LOS CAMINOS 0.4804
-0.0010 MC GUINNESS 0.0010
-0.0010 MILL ROAD 0.0019
-1.0971 MÁS ATESTADA -1.8270
-1.5266 MÁS ATESTADO -1.1761
-1.0971 MÁS BUENA -1.8253
-1.5266 MÁS BUENO -1.1366
-1.0971 MÁS CONGESTIONADA -1.8270
-1.5266 MÁS CONGESTIONADO -1.1761
-0.9624 MÁS FÁCIL 0.5489
-0.9624 MÁS INTERMITENTE -1.9147
-1.0971 MÁS LENTA -1.8270
-1.5266 MÁS LENTO -1.1761
-1.0971 MÁS LISA -1.8253
-1.3669 MÁS LISO -1.2430
-1.0971 MÁS RÁPIDA -1.8253
-1.5266 MÁS RÁPIDO -1.1429
-1.0971 MÁS ÁSPERA -1.8270
-1.5266 MÁS ÁSPERO -1.1761
-0.1963 NO </s> 2.9288
-0.5643 NO ES -0.4767
-0.1249 NO, ES -0.4767
-0.0503 O </s> 1.1643
-0.9697 O ES -0.9680
-0.1249 OKAY </s> 3.2967
-0.0010 OLD MILL 0.0010
-0.6992 OTRA AUTOPISTA 0.2358
-0.6992 OTRA CALLE 0.2358
-0.6992 OTRA CARRETERA 0.2358
-0.6992 OTRA RUTA 0.2358
-0.6992 OTRA VÍA 0.2358
-0.7013 OTRAS AUTOPISTAS -0.5583
-0.7013 OTRAS CALLES -0.5583
-0.7013 OTRAS CARRETERAS -0.5583
-0.7013 OTRAS RUTAS -0.5583
-0.7013 OTRAS VÍAS -0.5583
-0.0009 OTRO CAMINO -1.0956
-0.0116 OTROS CAMINOS -0.5583
-0.0010 PAERDEGAT 7TH 0.0010
-0.0792 PARECE QUE -0.6790
-0.0503 PLACE </s> 1.1643
-0.9697 PLACE ES -0.9680
-1.1722 QUE 15TH 1.4829
-1.1722 QUE ASTER 1.4829
-1.1722 QUE AVENUE -1.0002
-1.1722 QUE BRIGHTON 1.4829
-1.1722 QUE DEARBORN 1.4829
-1.1722 QUE ELMWOOD 1.4829
-0.6407 QUE LAS 0.6368
-1.3069 QUE LOS 0.6118
-1.1722 QUE MC 1.4829
-1.6493 QUE NO -0.2596
-1.1722 QUE OLD 1.4829
-1.1722 QUE PAERDEGAT 1.4829
-1.1722 QUE SKIDMORE 1.4829
-1.6493 QUE SÍ 0.2041
-2.9177 QUÉ ADEMÁS -0.4760
-1.3229 QUÉ AUTOPISTA -1.8451
-2.3948 QUÉ AUTOPISTAS -0.8304
-1.3229 QUÉ CALLE -1.8451
-2.3948 QUÉ CALLES -0.8304
-1.3229 QUÉ CAMINO -1.8524
-2.3948 QUÉ CAMINOS -0.8304
-1.3229 QUÉ CARRETERA -1.8451
-2.3948 QUÉ CARRETERAS -0.8304
-2.9177 QUÉ DEMÁS 0.3010
-1.6544 QUÉ ES -1.6436
-2.9177 QUÉ HAY -0.4157
-0.3189 QUÉ OTRA 0.3018
-1.4358 QUÉ OTRAS 0.3105
-1.0164 QUÉ OTRO 0.3010
-2.1160 QUÉ OTROS 0.3010
-1.3229 QUÉ RUTA -1.8451
-2.3948 QUÉ RUTAS -0.8304
-1.3574 QUÉ SON -1.8151
-1.3229 QUÉ VÍA -1.8451
-2.3948 QUÉ VÍAS -0.8304
-0.0503 ROAD </s> 1.1643
-0.9697 ROAD ES -0.9680
-1.1290 RUTA ADEMÁS 0.7347
-1.3580 RUTA ATESTADA -1.0038
-1.1662 RUTA BUENA -1.0810
-1.3580 RUTA CONGESTIONADA -1.0038
-0.3906 RUTA ES -1.9797
-1.1662 RUTA FÁCIL 1.0182
-1.5921 RUTA HAY -1.2608
-1.3580 RUTA INTERMITENTE -1.0220
-1.3580 RUTA LENTA -1.0038
-1.1662 RUTA LISA -1.0810
-1.1662 RUTA RÁPIDA -1.0810
-1.3580 RUTA ÁSPERA -1.0038
-1.3457 RUTAS </s> 2.9957
-1.3457 RUTAS AHORA 1.0142
-1.1696 RUTAS ATESTADAS -0.2852
-1.2208 RUTAS BUENAS 0.8129
-1.1696 RUTAS CONGESTIONADAS -0.2852
-1.2208 RUTAS FÁCILES 0.8893
-1.1696 RUTAS INTERMITENTES -0.2967
-1.1696 RUTAS LENTAS -0.2852
-1.2208 RUTAS LISAS 0.8129
-1.2208 RUTAS RÁPIDAS 0.8129
-0.4904 RUTAS SON -1.3236
-1.1696 RUTAS ÁSPERAS -0.2852
-1.8976 RÁPIDA 15TH 1.8808
-0.6305 RÁPIDA </s> 1.7285
-0.3726 RÁPIDA ADEMÁS 0.2168
-1.8976 RÁPIDA ASTER 1.8808
-1.8976 RÁPIDA AVENUE -0.6022
-1.8976 RÁPIDA BRIGHTON 1.8808
-1.8976 RÁPIDA DEARBORN 1.8808
-0.6715 RÁPIDA DEL 1.5675
-1.8976 RÁPIDA ELMWOOD 1.8808
-1.8976 RÁPIDA MC 1.8808
-1.8976 RÁPIDA OLD 1.8808
-1.8976 RÁPIDA PAERDEGAT 1.8808
-1.8976 RÁPIDA SKIDMORE 1.8808
-0.0084 RÁPIDAS </s> 2.0663
-1.6564 RÁPIDO 15TH 2.1818
-0.5001 RÁPIDO </s> 2.1404
-0.5208 RÁPIDO ADEMÁS 0.9072
-1.6564 RÁPIDO ASTER 2.1818
-1.6564 RÁPIDO AVENUE -0.3012
-1.6564 RÁPIDO BRIGHTON 2.1818
-1.6564 RÁPIDO DEARBORN 2.1818
-0.8113 RÁPIDO DEL 2.2496
-1.6564 RÁPIDO ELMWOOD 2.1818
-1.6564 RÁPIDO MC 2.1818
-1.6564 RÁPIDO OLD 2.1818
-1.6564 RÁPIDO PAERDEGAT 2.1818
-1.6564 RÁPIDO SKIDMORE 2.1818
-0.0378 RÁPIDOS </s> 2.7325
-0.1249 SIGA </s> 3.2967
-0.0010 SKIDMORE PLACE 0.0019
-1.1268 SON ATESTADAS 0.3115
-1.7853 SON ATESTADOS 0.3468
-1.5355 SON BUENAS 0.5119
-2.1375 SON BUENOS 0.4771
-1.1268 SON CONGESTIONADAS 0.3115
-1.7853 SON CONGESTIONADOS 0.3468
-1.4608 SON FÁCILES 0.5136
-1.0494 SON INTERMITENTES 0.3098
-0.7805 SON LAS 0.3854
-1.1268 SON LENTAS 0.3115
-1.7853 SON LENTOS 0.3468
-1.5355 SON LISAS 0.5119
-2.1375 SON LISOS 0.4771
-1.4608 SON LOS 0.3745
-1.5355 SON RÁPIDAS 0.5119
-2.1375 SON RÁPIDOS 0.4771
-0.7805 SON UNAS 0.0232
-1.4608 SON UNOS 0.0223
-1.1268 SON ÁSPERAS 0.3115
-1.7853 SON ÁSPEROS 0.3468
-0.0503 STREET </s> 1.1643
-0.9697 STREET ES -0.9680
-0.0580 SÍ </s> 2.9288
-1.9138 TRANSITAR 15TH 1.7559
-0.4885 TRANSITAR </s> 1.4455
-0.4349 TRANSITAR ADEMÁS 0.1380
-1.9138 TRANSITAR ASTER 1.7559
-1.9138 TRANSITAR AVENUE -0.7272
-1.9138 TRANSITAR BRIGHTON 1.7559
-1.9138 TRANSITAR DEARBORN 1.7559
-0.7341 TRANSITAR DEL 1.4890
-1.9138 TRANSITAR ELMWOOD 1.7559
-1.9138 TRANSITAR MC 1.7559
-1.9138 TRANSITAR OLD 1.7559
-1.9138 TRANSITAR PAERDEGAT 1.7559
-1.9138 TRANSITAR SKIDMORE 1.7559
-0.0044 UN CAMINO -1.7118
-0.6998 UNA AUTOPISTA -1.7014
-0.6998 UNA CALLE -1.7014
-0.6998 UNA CARRETERA -1.7014
-0.6998 UNA RUTA -1.7014
-0.6998 UNA VÍA -1.7014
-0.7035 UNAS AUTOPISTAS -0.9031
-0.7035 UNAS CALLES -0.9031
-0.7035 UNAS CARRETERAS -0.9031
-0.7035 UNAS RUTAS -0.9031
-0.7035 UNAS VÍAS -0.9031
-0.0223 UNOS CAMINOS -0.9031
-0.0036 USTED QUE -0.7759
-1.1290 VÍA ADEMÁS 0.7347
-1.3580 VÍA ATESTADA -1.0038
-1.1662 VÍA BUENA -1.0810
-1.3580 VÍA CONGESTIONADA -1.0038
-0.3906 VÍA ES -1.9797
-1.1662 VÍA FÁCIL 1.0182
-1.5921 VÍA HAY -1.2608
-1.3580 VÍA INTERMITENTE -1.0220
-1.3580 VÍA LENTA -1.0038
-1.1662 VÍA LISA -1.0810
-1.1662 VÍA RÁPIDA -1.0810
-1.3580 VÍA ÁSPERA -1.0038
-1.3457 VÍAS </s> 2.9957
-1.3457 VÍAS AHORA 1.0142
-1.1696 VÍAS ATESTADAS -0.2852
-1.2208 VÍAS BUENAS 0.8129
-1.1696 VÍAS CONGESTIONADAS -0.2852
-1.2208 VÍAS FÁCILES 0.8893
-1.1696 VÍAS INTERMITENTES -0.2967
-1.1696 VÍAS LENTAS -0.2852
-1.2208 VÍAS LISAS 0.8129
-1.2208 VÍAS RÁPIDAS 0.8129
-0.4904 VÍAS SON -1.3236
-1.1696 VÍAS ÁSPERAS -0.2852
-0.1249 Y ADEMÁS -0.4760
-0.7758 ÁSPERA </s> 1.9885
-0.2579 ÁSPERA ADEMÁS 0.2168
-0.5568 ÁSPERA DEL 1.5675
-0.1047 ÁSPERAS </s> 1.9543
-1.1461 ÁSPERAS AHORA 1.0142
-0.8829 ÁSPERAS LAS 1.3030
-1.7993 ÁSPERO 15TH 2.3579
-0.4669 ÁSPERO </s> 2.1404
-0.4876 ÁSPERO ADEMÁS 0.9072
-1.7993 ÁSPERO ASTER 2.3579
-1.7993 ÁSPERO AVENUE -0.1251
-1.7993 ÁSPERO BRIGHTON 2.3579
-1.7993 ÁSPERO DEARBORN 2.3579
-0.7782 ÁSPERO DEL 2.2496
-1.7993 ÁSPERO ELMWOOD 2.3579
-1.7993 ÁSPERO MC 2.3579
-1.7993 ÁSPERO OLD 2.3579
-1.7993 ÁSPERO PAERDEGAT 2.3579
-1.7993 ÁSPERO SKIDMORE 2.3579
-0.1549 ÁSPEROS </s> 2.6277
-1.0000 ÁSPEROS AHORA 1.4914
-0.8239 ÁSPEROS LOS 1.1761

\3-grams:
-0.0495 15TH AVENUE </s> 
-0.9768 15TH AVENUE ES 
-0.0495 4TH LANE </s> 
-0.9768 4TH LANE ES 
-0.0495 7TH STREET </s> 
-0.9768 7TH STREET ES 
-2.2423 </s> <s> 15TH 
-3.4728 </s> <s> ALGO 
-2.2423 </s> <s> ASTER 
-2.2423 </s> <s> AVENUE 
-2.2423 </s> <s> BRIGHTON 
-3.4728 </s> <s> BUENO 
-1.6946 </s> <s> CREE 
-1.8707 </s> <s> CREES 
-3.1717 </s> <s> CREO 
-0.8953 </s> <s> CUÁL 
-1.5643 </s> <s> CUÁLES 
-2.2423 </s> <s> DEARBORN 
-2.2423 </s> <s> ELMWOOD 
-1.2423 </s> <s> ES 
-0.8718 </s> <s> HAY 
-2.3758 </s> <s> LAS 
-3.0748 </s> <s> LOS 
-2.2423 </s> <s> MC 
-3.1717 </s> <s> NO 
-3.4728 </s> <s> NO, 
-3.4728 </s> <s> OKAY 
-2.2423 </s> <s> OLD 
-0.9993 </s> <s> OTRA 
-2.1206 </s> <s> OTRAS 
-1.6982 </s> <s> OTRO 
-2.8195 </s> <s> OTROS 
-2.2423 </s> <s> PAERDEGAT 
-3.1717 </s> <s> PARECE 
-0.3829 </s> <s> QUÉ 
-3.4728 </s> <s> SIGA 
-2.2423 </s> <s> SKIDMORE 
-2.0029 </s> <s> SON 
-3.4728 </s> <s> SÍ 
-3.4728 </s> <s> Y 
-0.0126 <s> 15TH AVENUE 
-0.1761 <s> ALGO DEMÁS 
-0.0126 <s> ASTER COURT 
-0.0126 <s> AVENUE O 
-0.0126 <s> BRIGHTON 4TH 
-0.1761 <s> BUENO </s> 
-0.0036 <s> CREE USTED 
-0.0054 <s> CREES QUE 
-0.0969 <s> CREO QUE 
-0.8109 <s> CUÁL AUTOPISTA 
-0.8109 <s> CUÁL CALLE 
-0.8109 <s> CUÁL CAMINO 
-0.8109 <s> CUÁL CARRETERA 
-1.1467 <s> CUÁL ES 
-0.8109 <s> CUÁL RUTA 
-0.8109 <s> CUÁL VÍA 
-1.2579 <s> CUÁLES AUTOPISTAS 
-1.2579 <s> CUÁLES CALLES 
-1.2579 <s> CUÁLES CAMINOS 
-1.2579 <s> CUÁLES CARRETERAS 
-1.2579 <s> CUÁLES RUTAS 
-0.1788 <s> CUÁLES SON 
-1.2579 <s> CUÁLES VÍAS 
-0.0126 <s> DEARBORN COURT 
-0.0126 <s> ELMWOOD AVENUE 
-1.5328 <s> ES EL 
-0.5785 <s> ES MÁS 
-0.9307 <s> ES UN 
-0.2317 <s> ES UNA 
-2.2036 <s> HAY AUTOPISTAS 
-2.2036 <s> HAY CALLES 
-2.2036 <s> HAY CAMINOS 
-2.2036 <s> HAY CARRETERAS 
-0.1280 <s> HAY OTRA 
-1.2493 <s> HAY OTRAS 
-0.8270 <s> HAY OTRO 
-1.9483 <s> HAY OTROS 
-2.2036 <s> HAY RUTAS 
-2.2036 <s> HAY VÍAS 
-0.7160 <s> LAS AUTOPISTAS 
-0.7160 <s> LAS CALLES 
-0.7160 <s> LAS CARRETERAS 
-0.7160 <s> LAS RUTAS 
-0.7160 <s> LAS VÍAS 
-0.0792 <s> LOS CAMINOS 
-0.0126 <s> MC GUINNESS 
-0.3979 <s> NO </s> 
-0.3979 <s> NO ES 
-0.1761 <s> NO, ES 
-0.1761 <s> OKAY </s> 
-0.0126 <s> OLD MILL 
-0.6997 <s> OTRA AUTOPISTA 
-0.6997 <s> OTRA CALLE 
-0.6997 <s> OTRA CARRETERA 
-0.6997 <s> OTRA RUTA 
-0.6997 <s> OTRA VÍA 
-0.7085 <s> OTRAS AUTOPISTAS 
-0.7085 <s> OTRAS CALLES 
-0.7085 <s> OTRAS CARRETERAS 
-0.7085 <s> OTRAS RUTAS 
-0.7085 <s> OTRAS VÍAS 
-0.0036 <s> OTRO CAMINO 
-0.0458 <s> OTROS CAMINOS 
-0.0126 <s> PAERDEGAT 7TH 
-0.0969 <s> PARECE QUE 
-3.0901 <s> QUÉ ADEMÁS 
-1.3229 <s> QUÉ AUTOPISTA 
-2.4369 <s> QUÉ AUTOPISTAS 
-1.3229 <s> QUÉ CALLE 
-2.4369 <s> QUÉ CALLES 
-1.3229 <s> QUÉ CAMINO 
-2.4369 <s> QUÉ CAMINOS 
-1.3229 <s> QUÉ CARRETERA 
-2.4369 <s> QUÉ CARRETERAS 
-3.0901 <s> QUÉ DEMÁS 
-1.6587 <s> QUÉ ES 
-3.0901 <s> QUÉ HAY 
-0.3156 <s> QUÉ OTRA 
-1.4369 <s> QUÉ OTRAS 
-1.0145 <s> QUÉ OTRO 
-2.1358 <s> QUÉ OTROS 
-1.3229 <s> QUÉ RUTA 
-2.4369 <s> QUÉ RUTAS 
-1.3577 <s> QUÉ SON 
-1.3229 <s> QUÉ VÍA 
-2.4369 <s> QUÉ VÍAS 
-0.1761 <s> SIGA </s> 
-0.0126 <s> SKIDMORE PLACE 
-0.7853 <s> SON ATESTADAS 
-1.4843 <s> SON ATESTADOS 
-0.7853 <s> SON CONGESTIONADAS 
-1.4843 <s> SON CONGESTIONADOS 
-0.7061 <s> SON INTERMITENTES 
-0.7853 <s> SON LENTAS 
-1.4843 <s> SON LENTOS 
-0.7853 <s> SON ÁSPERAS 
-1.4843 <s> SON ÁSPEROS 
-0.1761 <s> SÍ </s> 
-0.1761 <s> Y ADEMÁS 
-0.0669 ADEMÁS </s> <s> 
-1.0002 ADEMÁS DEL 15TH 
-1.0002 ADEMÁS DEL ASTER 
-1.0002 ADEMÁS DEL AVENUE 
-1.0002 ADEMÁS DEL BRIGHTON 
-1.0002 ADEMÁS DEL DEARBORN 
-1.0002 ADEMÁS DEL ELMWOOD 
-1.0002 ADEMÁS DEL MC 
-1.0002 ADEMÁS DEL OLD 
-1.0002 ADEMÁS DEL PAERDEGAT 
-1.0002 ADEMÁS DEL SKIDMORE 
-0.0072 AHORA </s> <s> 
-0.1761 ALGO DEMÁS </s> 
-0.0495 ASTER COURT </s> 
-0.9768 ASTER COURT ES 
-0.0072 ATESTADA </s> <s> 
-0.0022 ATESTADA ADEMÁS DEL 
-1.0043 ATESTADA DEL 15TH 
-1.0043 ATESTADA DEL ASTER 
-1.0043 ATESTADA DEL AVENUE 
-1.0043 ATESTADA DEL BRIGHTON 
-1.0043 ATESTADA DEL DEARBORN 
-1.0043 ATESTADA DEL ELMWOOD 
-1.0043 ATESTADA DEL MC 
-1.0043 ATESTADA DEL OLD 
-1.0043 ATESTADA DEL PAERDEGAT 
-1.0043 ATESTADA DEL SKIDMORE 
-0.0066 ATESTADAS </s> <s> 
-0.0792 ATESTADAS AHORA </s> 
-0.7404 ATESTADAS LAS AUTOPISTAS 
-0.7404 ATESTADAS LAS CALLES 
-0.7404 ATESTADAS LAS CARRETERAS 
-0.7404 ATESTADAS LAS RUTAS 
-0.7404 ATESTADAS LAS VÍAS 
-0.3010 ATESTADO 15TH AVENUE 
-0.0102 ATESTADO </s> <s> 
-0.0107 ATESTADO ADEMÁS DEL 
-0.3010 ATESTADO ASTER COURT 
-0.3010 ATESTADO AVENUE O 
-0.3010 ATESTADO BRIGHTON 4TH 
-0.3010 ATESTADO DEARBORN COURT 
-1.0212 ATESTADO DEL 15TH 
-1.0212 ATESTADO DEL ASTER 
-1.0212 ATESTADO DEL AVENUE 
-1.0212 ATESTADO DEL BRIGHTON 
-1.0212 ATESTADO DEL DEARBORN 
-1.0212 ATESTADO DEL ELMWOOD 
-1.0212 ATESTADO DEL MC 
-1.0212 ATESTADO DEL OLD 
-1.0212 ATESTADO DEL PAERDEGAT 
-1.0212 ATESTADO DEL SKIDMORE 
-0.3010 ATESTADO ELMWOOD AVENUE 
-0.3010 ATESTADO MC GUINNESS 
-0.3010 ATESTADO OLD MILL 
-0.3010 ATESTADO PAERDEGAT 7TH 
-0.3010 ATESTADO SKIDMORE PLACE 
-0.0322 ATESTADOS </s> <s> 
-0.3010 ATESTADOS AHORA </s> 
-0.1761 ATESTADOS LOS CAMINOS 
-0.0072 AUTOPISTA ADEMÁS DEL 
-0.8573 AUTOPISTA ATESTADA </s> 
-0.0792 AUTOPISTA ATESTADA ADEMÁS 
-1.7482 AUTOPISTA BUENA 15TH 
-0.5721 AUTOPISTA BUENA </s> 
-0.2711 AUTOPISTA BUENA ADEMÁS 
-1.7482 AUTOPISTA BUENA ASTER 
-1.7482 AUTOPISTA BUENA AVENUE 
-1.7482 AUTOPISTA BUENA BRIGHTON 
-1.7482 AUTOPISTA BUENA DEARBORN 
-1.7482 AUTOPISTA BUENA ELMWOOD 
-1.7482 AUTOPISTA BUENA MC 
-1.7482 AUTOPISTA BUENA OLD 
-1.7482 AUTOPISTA BUENA PAERDEGAT 
-1.7482 AUTOPISTA BUENA SKIDMORE 
-0.8573 AUTOPISTA CONGESTIONADA </s> 
-0.0792 AUTOPISTA CONGESTIONADA ADEMÁS 
-1.4098 AUTOPISTA ES ATESTADA 
-1.4098 AUTOPISTA ES BUENA 
-1.4098 AUTOPISTA ES CONGESTIONADA 
-1.4098 AUTOPISTA ES FÁCIL 
-1.4098 AUTOPISTA ES INTERMITENTE 
-1.2685 AUTOPISTA ES LA 
-1.4098 AUTOPISTA ES LENTA 
-1.4098 AUTOPISTA ES LISA 
-0.2271 AUTOPISTA ES MÁS 
-1.4098 AUTOPISTA ES RÁPIDA 
-1.4098 AUTOPISTA ES ÁSPERA 
-0.0078 AUTOPISTA FÁCIL DE 
-0.0212 AUTOPISTA HAY ADEMÁS 
-0.8573 AUTOPISTA INTERMITENTE </s> 
-0.0792 AUTOPISTA INTERMITENTE ADEMÁS 
-0.8573 AUTOPISTA LENTA </s> 
-0.0792 AUTOPISTA LENTA ADEMÁS 
-1.7482 AUTOPISTA LISA 15TH 
-0.5721 AUTOPISTA LISA </s> 
-0.2711 AUTOPISTA LISA ADEMÁS 
-1.7482 AUTOPISTA LISA ASTER 
-1.7482 AUTOPISTA LISA AVENUE 
-1.7482 AUTOPISTA LISA BRIGHTON 
-1.7482 AUTOPISTA LISA DEARBORN 
-1.7482 AUTOPISTA LISA ELMWOOD 
-1.7482 AUTOPISTA LISA MC 
-1.7482 AUTOPISTA LISA OLD 
-1.7482 AUTOPISTA LISA PAERDEGAT 
-1.7482 AUTOPISTA LISA SKIDMORE 
-1.7482 AUTOPISTA RÁPIDA 15TH 
-0.5721 AUTOPISTA RÁPIDA </s> 
-0.2711 AUTOPISTA RÁPIDA ADEMÁS 
-1.7482 AUTOPISTA RÁPIDA ASTER 
-1.7482 AUTOPISTA RÁPIDA AVENUE 
-1.7482 AUTOPISTA RÁPIDA BRIGHTON 
-1.7482 AUTOPISTA RÁPIDA DEARBORN 
-1.7482 AUTOPISTA RÁPIDA ELMWOOD 
-1.7482 AUTOPISTA RÁPIDA MC 
-1.7482 AUTOPISTA RÁPIDA OLD 
-1.7482 AUTOPISTA RÁPIDA PAERDEGAT 
-1.7482 AUTOPISTA RÁPIDA SKIDMORE 
-0.8573 AUTOPISTA ÁSPERA </s> 
-0.0792 AUTOPISTA ÁSPERA ADEMÁS 
-0.0792 AUTOPISTAS </s> <s> 
-0.0792 AUTOPISTAS AHORA </s> 
-0.0512 AUTOPISTAS ATESTADAS </s> 
-0.0580 AUTOPISTAS BUENAS </s> 
-0.0512 AUTOPISTAS CONGESTIONADAS </s> 
-0.0580 AUTOPISTAS FÁCILES DE 
-0.0512 AUTOPISTAS INTERMITENTES </s> 
-0.0512 AUTOPISTAS LENTAS </s> 
-0.0580 AUTOPISTAS LISAS </s> 
-0.0580 AUTOPISTAS RÁPIDAS </s> 
-0.8553 AUTOPISTAS SON ATESTADAS 
-1.1563 AUTOPISTAS SON BUENAS 
-0.8553 AUTOPISTAS SON CONGESTIONADAS 
-1.1563 AUTOPISTAS SON FÁCILES 
-0.8553 AUTOPISTAS SON INTERMITENTES 
-0.8553 AUTOPISTAS SON LENTAS 
-1.1563 AUTOPISTAS SON LISAS 
-1.1563 AUTOPISTAS SON RÁPIDAS 
-0.8553 AUTOPISTAS SON ÁSPERAS 
-0.0512 AUTOPISTAS ÁSPERAS </s> 
-0.0005 AVENUE </s> <s> 
-1.3847 AVENUE ES ATESTADO 
-1.6857 AVENUE ES BUENO 
-1.3847 AVENUE ES CONGESTIONADO 
-1.6857 AVENUE ES EL 
-1.6857 AVENUE ES FÁCIL 
-1.3847 AVENUE ES INTERMITENTE 
-1.3847 AVENUE ES LENTO 
-1.6857 AVENUE ES LISO 
-0.7315 AVENUE ES MÁS 
-1.6857 AVENUE ES RÁPIDO 
-1.0837 AVENUE ES UN 
-0.3847 AVENUE ES UNA 
-1.3847 AVENUE ES ÁSPERO 
-0.0495 AVENUE O </s> 
-0.9768 AVENUE O ES 
-0.0011 BOULEVARD </s> <s> 
-1.3892 BOULEVARD ES ATESTADO 
-1.6902 BOULEVARD ES BUENO 
-1.3892 BOULEVARD ES CONGESTIONADO 
-1.6902 BOULEVARD ES EL 
-1.6902 BOULEVARD ES FÁCIL 
-1.3892 BOULEVARD ES INTERMITENTE 
-1.3892 BOULEVARD ES LENTO 
-1.6902 BOULEVARD ES LISO 
-0.7360 BOULEVARD ES MÁS 
-1.6902 BOULEVARD ES RÁPIDO 
-1.0881 BOULEVARD ES UN 
-0.3892 BOULEVARD ES UNA 
-1.3892 BOULEVARD ES ÁSPERO 
-0.0010 BRIGHTON 4TH LANE 
-0.0792 BUENA 15TH AVENUE 
-0.0039 BUENA </s> <s> 
-0.0022 BUENA ADEMÁS DEL 
-0.0792 BUENA ASTER COURT 
-0.0792 BUENA AVENUE O 
-0.0792 BUENA BRIGHTON 4TH 
-0.0792 BUENA DEARBORN COURT 
-1.0043 BUENA DEL 15TH 
-1.0043 BUENA DEL ASTER 
-1.0043 BUENA DEL AVENUE 
-1.0043 BUENA DEL BRIGHTON 
-1.0043 BUENA DEL DEARBORN 
-1.0043 BUENA DEL ELMWOOD 
-1.0043 BUENA DEL MC 
-1.0043 BUENA DEL OLD 
-1.0043 BUENA DEL PAERDEGAT 
-1.0043 BUENA DEL SKIDMORE 
-0.0792 BUENA ELMWOOD AVENUE 
-0.0792 BUENA MC GUINNESS 
-0.0792 BUENA OLD MILL 
-0.0792 BUENA PAERDEGAT 7TH 
-0.0792 BUENA SKIDMORE PLACE 
-0.0086 BUENAS </s> <s> 
-0.1761 BUENO 15TH AVENUE 
-0.0098 BUENO </s> <s> 
-0.0107 BUENO ADEMÁS DEL 
-0.1761 BUENO ASTER COURT 
-0.1761 BUENO AVENUE O 
-0.1761 BUENO BRIGHTON 4TH 
-0.1761 BUENO DEARBORN COURT 
-1.0212 BUENO DEL 15TH 
-1.0212 BUENO DEL ASTER 
-1.0212 BUENO DEL AVENUE 
-1.0212 BUENO DEL BRIGHTON 
-1.0212 BUENO DEL DEARBORN 
-1.0212 BUENO DEL ELMWOOD 
-1.0212 BUENO DEL MC 
-1.0212 BUENO DEL OLD 
-1.0212 BUENO DEL PAERDEGAT 
-1.0212 BUENO DEL SKIDMORE 
-0.1761 BUENO ELMWOOD AVENUE 
-0.1761 BUENO MC GUINNESS 
-0.1761 BUENO OLD MILL 
-0.1761 BUENO PAERDEGAT 7TH 
-0.1761 BUENO SKIDMORE PLACE 
-0.0414 BUENOS </s> <s> 
-0.0072 CALLE ADEMÁS DEL 
-0.8573 CALLE ATESTADA </s> 
-0.0792 CALLE ATESTADA ADEMÁS 
-1.7482 CALLE BUENA 15TH 
-0.5721 CALLE BUENA </s> 
-0.2711 CALLE BUENA ADEMÁS 
-1.7482 CALLE BUENA ASTER 
-1.7482 CALLE BUENA AVENUE 
-1.7482 CALLE BUENA BRIGHTON 
-1.7482 CALLE BUENA DEARBORN 
-1.7482 CALLE BUENA ELMWOOD 
-1.7482 CALLE BUENA MC 
-1.7482 CALLE BUENA OLD 
-1.7482 CALLE BUENA PAERDEGAT 
-1.7482 CALLE BUENA SKIDMORE 
-0.8573 CALLE CONGESTIONADA </s> 
-0.0792 CALLE CONGESTIONADA ADEMÁS 
-1.4098 CALLE ES ATESTADA 
-1.4098 CALLE ES BUENA 
-1.4098 CALLE ES CONGESTIONADA 
-1.4098 CALLE ES FÁCIL 
-1.4098 CALLE ES INTERMITENTE 
-1.2685 CALLE ES LA 
-1.4098 CALLE ES LENTA 
-1.4098 CALLE ES LISA 
-0.2271 CALLE ES MÁS 
-1.4098 CALLE ES RÁPIDA 
-1.4098 CALLE ES ÁSPERA 
-0.0078 CALLE FÁCIL DE 
-0.0212 CALLE HAY ADEMÁS 
-0.8573 CALLE INTERMITENTE </s> 
-0.0792 CALLE INTERMITENTE ADEMÁS 
-0.8573 CALLE LENTA </s> 
-0.0792 CALLE LENTA ADEMÁS 
-1.7482 CALLE LISA 15TH 
-0.5721 CALLE LISA </s> 
-0.2711 CALLE LISA ADEMÁS 
-1.7482 CALLE LISA ASTER 
-1.7482 CALLE LISA AVENUE 
-1.7482 CALLE LISA BRIGHTON 
-1.7482 CALLE LISA DEARBORN 
-1.7482 CALLE LISA ELMWOOD 
-1.7482 CALLE LISA MC 
-1.7482 CALLE LISA OLD 
-1.7482 CALLE LISA PAERDEGAT 
-1.7482 CALLE LISA SKIDMORE 
-1.7482 CALLE RÁPIDA 15TH 
-0.5721 CALLE RÁPIDA </s> 
-0.2711 CALLE RÁPIDA ADEMÁS 
-1.7482 CALLE RÁPIDA ASTER 
-1.7482 CALLE RÁPIDA AVENUE 
-1.7482 CALLE RÁPIDA BRIGHTON 
-1.7482 CALLE RÁPIDA DEARBORN 
-1.7482 CALLE RÁPIDA ELMWOOD 
-1.7482 CALLE RÁPIDA MC 
-1.7482 CALLE RÁPIDA OLD 
-1.7482 CALLE RÁPIDA PAERDEGAT 
-1.7482 CALLE RÁPIDA SKIDMORE 
-0.8573 CALLE ÁSPERA </s> 
-0.0792 CALLE ÁSPERA ADEMÁS 
-0.0792 CALLES </s> <s> 
-0.0792 CALLES AHORA </s> 
-0.0512 CALLES ATESTADAS </s> 
-0.0580 CALLES BUENAS </s> 
-0.0512 CALLES CONGESTIONADAS </s> 
-0.0580 CALLES FÁCILES DE 
-0.0512 CALLES INTERMITENTES </s> 
-0.0512 CALLES LENTAS </s> 
-0.0580 CALLES LISAS </s> 
-0.0580 CALLES RÁPIDAS </s> 
-0.8553 CALLES SON ATESTADAS 
-1.1563 CALLES SON BUENAS 
-0.8553 CALLES SON CONGESTIONADAS 
-1.1563 CALLES SON FÁCILES 
-0.8553 CALLES SON INTERMITENTES 
-0.8553 CALLES SON LENTAS 
-1.1563 CALLES SON LISAS 
-1.1563 CALLES SON RÁPIDAS 
-0.8553 CALLES SON ÁSPERAS 
-0.0512 CALLES ÁSPERAS </s> 
-0.0072 CAMINO ADEMÁS DEL 
-0.8573 CAMINO ATESTADO </s> 
-0.0792 CAMINO ATESTADO ADEMÁS 
-1.7482 CAMINO BUENO 15TH 
-0.5721 CAMINO BUENO </s> 
-0.2711 CAMINO BUENO ADEMÁS 
-1.7482 CAMINO BUENO ASTER 
-1.7482 CAMINO BUENO AVENUE 
-1.7482 CAMINO BUENO BRIGHTON 
-1.7482 CAMINO BUENO DEARBORN 
-1.7482 CAMINO BUENO ELMWOOD 
-1.7482 CAMINO BUENO MC 
-1.7482 CAMINO BUENO OLD 
-1.7482 CAMINO BUENO PAERDEGAT 
-1.7482 CAMINO BUENO SKIDMORE 
-0.8573 CAMINO CONGESTIONADO </s> 
-0.0792 CAMINO CONGESTIONADO ADEMÁS 
-1.4098 CAMINO ES ATESTADO 
-1.4098 CAMINO ES BUENO 
-1.4098 CAMINO ES CONGESTIONADO 
-1.2685 CAMINO ES EL 
-1.4098 CAMINO ES FÁCIL 
-1.4098 CAMINO ES INTERMITENTE 
-1.4098 CAMINO ES LENTO 
-1.4098 CAMINO ES LISO 
-0.2271 CAMINO ES MÁS 
-1.4098 CAMINO ES RÁPIDO 
-1.4098 CAMINO ES ÁSPERO 
-0.0078 CAMINO FÁCIL DE 
-0.0212 CAMINO HAY ADEMÁS 
-0.8573 CAMINO INTERMITENTE </s> 
-0.0792 CAMINO INTERMITENTE ADEMÁS 
-0.8573 CAMINO LENTO </s> 
-0.0792 CAMINO LENTO ADEMÁS 
-1.7482 CAMINO LISO 15TH 
-0.5721 CAMINO LISO </s> 
-0.2711 CAMINO LISO ADEMÁS 
-1.7482 CAMINO LISO ASTER 
-1.7482 CAMINO LISO AVENUE 
-1.7482 CAMINO LISO BRIGHTON 
-1.7482 CAMINO LISO DEARBORN 
-1.7482 CAMINO LISO ELMWOOD 
-1.7482 CAMINO LISO MC 
-1.7482 CAMINO LISO OLD 
-1.7482 CAMINO LISO PAERDEGAT 
-1.7482 CAMINO LISO SKIDMORE 
-0.0212 CAMINO MÁS LISO 
-1.7482 CAMINO RÁPIDO 15TH 
-0.5721 CAMINO RÁPIDO </s> 
-0.2711 CAMINO RÁPIDO ADEMÁS 
-1.7482 CAMINO RÁPIDO ASTER 
-1.7482 CAMINO RÁPIDO AVENUE 
-1.7482 CAMINO RÁPIDO BRIGHTON 
-1.7482 CAMINO RÁPIDO DEARBORN 
-1.7482 CAMINO RÁPIDO ELMWOOD 
-1.7482 CAMINO RÁPIDO MC 
-1.7482 CAMINO RÁPIDO OLD 
-1.7482 CAMINO RÁPIDO PAERDEGAT 
-1.7482 CAMINO RÁPIDO SKIDMORE 
-0.8573 CAMINO ÁSPERO </s> 
-0.0792 CAMINO ÁSPERO ADEMÁS 
-0.0792 CAMINOS </s> <s> 
-0.0792 CAMINOS AHORA </s> 
-0.0512 CAMINOS ATESTADOS </s> 
-0.0580 CAMINOS BUENOS </s> 
-0.0512 CAMINOS CONGESTIONADOS </s> 
-0.0580 CAMINOS FÁCILES DE 
-0.0512 CAMINOS INTERMITENTES </s> 
-0.0512 CAMINOS LENTOS </s> 
-0.0580 CAMINOS LISOS </s> 
-0.0580 CAMINOS RÁPIDOS </s> 
-0.8553 CAMINOS SON ATESTADOS 
-1.1563 CAMINOS SON BUENOS 
-0.8553 CAMINOS SON CONGESTIONADOS 
-1.1563 CAMINOS SON FÁCILES 
-0.8553 CAMINOS SON INTERMITENTES 
-0.8553 CAMINOS SON LENTOS 
-1.1563 CAMINOS SON LISOS 
-1.1563 CAMINOS SON RÁPIDOS 
-0.8553 CAMINOS SON ÁSPEROS 
-0.0512 CAMINOS ÁSPEROS </s> 
-0.0072 CARRETERA ADEMÁS DEL 
-0.8573 CARRETERA ATESTADA </s> 
-0.0792 CARRETERA ATESTADA ADEMÁS 
-1.7482 CARRETERA BUENA 15TH 
-0.5721 CARRETERA BUENA </s> 
-0.2711 CARRETERA BUENA ADEMÁS 
-1.7482 CARRETERA BUENA ASTER 
-1.7482 CARRETERA BUENA AVENUE 
-1.7482 CARRETERA BUENA BRIGHTON 
-1.7482 CARRETERA BUENA DEARBORN 
-1.7482 CARRETERA BUENA ELMWOOD 
-1.7482 CARRETERA BUENA MC 
-1.7482 CARRETERA BUENA OLD 
-1.7482 CARRETERA BUENA PAERDEGAT 
-1.7482 CARRETERA BUENA SKIDMORE 
-0.8573 CARRETERA CONGESTIONADA </s> 
-0.0792 CARRETERA CONGESTIONADA ADEMÁS 
-1.4098 CARRETERA ES ATESTADA 
-1.4098 CARRETERA ES BUENA 
-1.4098 CARRETERA ES CONGESTIONADA 
-1.4098 CARRETERA ES FÁCIL 
-1.4098 CARRETERA ES INTERMITENTE 
-1.2685 CARRETERA ES LA 
-1.4098 CARRETERA ES LENTA 
-1.4098 CARRETERA ES LISA 
-0.2271 CARRETERA ES MÁS 
-1.4098 CARRETERA ES RÁPIDA 
-1.4098 CARRETERA ES ÁSPERA 
-0.0078 CARRETERA FÁCIL DE 
-0.0212 CARRETERA HAY ADEMÁS 
-0.8573 CARRETERA INTERMITENTE </s> 
-0.0792 CARRETERA INTERMITENTE ADEMÁS 
-0.8573 CARRETERA LENTA </s> 
-0.0792 CARRETERA LENTA ADEMÁS 
-1.7482 CARRETERA LISA 15TH 
-0.5721 CARRETERA LISA </s> 
-0.2711 CARRETERA LISA ADEMÁS 
-1.7482 CARRETERA LISA ASTER 
-1.7482 CARRETERA LISA AVENUE 
-1.7482 CARRETERA LISA BRIGHTON 
-1.7482 CARRETERA LISA DEARBORN 
-1.7482 CARRETERA LISA ELMWOOD 
-1.7482 CARRETERA LISA MC 
-1.7482 CARRETERA LISA OLD 
-1.7482 CARRETERA LISA PAERDEGAT 
-1.7482 CARRETERA LISA SKIDMORE 
-1.7482 CARRETERA RÁPIDA 15TH 
-0.5721 CARRETERA RÁPIDA </s> 
-0.2711 CARRETERA RÁPIDA ADEMÁS 
-1.7482 CARRETERA RÁPIDA ASTER 
-1.7482 CARRETERA RÁPIDA AVENUE 
-1.7482 CARRETERA RÁPIDA BRIGHTON 
-1.7482 CARRETERA RÁPIDA DEARBORN 
-1.7482 CARRETERA RÁPIDA ELMWOOD 
-1.7482 CARRETERA RÁPIDA MC 
-1.7482 CARRETERA RÁPIDA OLD 
-1.7482 CARRETERA RÁPIDA PAERDEGAT 
-1.7482 CARRETERA RÁPIDA SKIDMORE 
-0.8573 CARRETERA ÁSPERA </s> 
-0.0792 CARRETERA ÁSPERA ADEMÁS 
-0.0792 CARRETERAS </s> <s> 
-0.0792 CARRETERAS AHORA </s> 
-0.0512 CARRETERAS ATESTADAS </s> 
-0.0580 CARRETERAS BUENAS </s> 
-0.0512 CARRETERAS CONGESTIONADAS </s> 
-0.0580 CARRETERAS FÁCILES DE 
-0.0512 CARRETERAS INTERMITENTES </s> 
-0.0512 CARRETERAS LENTAS </s> 
-0.0580 CARRETERAS LISAS </s> 
-0.0580 CARRETERAS RÁPIDAS </s> 
-0.8553 CARRETERAS SON ATESTADAS 
-1.1563 CARRETERAS SON BUENAS 
-0.8553 CARRETERAS SON CONGESTIONADAS 
-1.1563 CARRETERAS SON FÁCILES 
-0.8553 CARRETERAS SON INTERMITENTES 
-0.8553 CARRETERAS SON LENTAS 
-1.1563 CARRETERAS SON LISAS 
-1.1563 CARRETERAS SON RÁPIDAS 
-0.8553 CARRETERAS SON ÁSPERAS 
-0.0512 CARRETERAS ÁSPERAS </s> 
-0.0072 CONGESTIONADA </s> <s> 
-0.0022 CONGESTIONADA ADEMÁS DEL 
-1.0043 CONGESTIONADA DEL 15TH 
-1.0043 CONGESTIONADA DEL ASTER 
-1.0043 CONGESTIONADA DEL AVENUE 
-1.0043 CONGESTIONADA DEL BRIGHTON 
-1.0043 CONGESTIONADA DEL DEARBORN 
-1.0043 CONGESTIONADA DEL ELMWOOD 
-1.0043 CONGESTIONADA DEL MC 
-1.0043 CONGESTIONADA DEL OLD 
-1.0043 CONGESTIONADA DEL PAERDEGAT 
-1.0043 CONGESTIONADA DEL SKIDMORE 
-0.0066 CONGESTIONADAS </s> <s> 
-0.0792 CONGESTIONADAS AHORA </s> 
-0.7404 CONGESTIONADAS LAS AUTOPISTAS 
-0.7404 CONGESTIONADAS LAS CALLES 
-0.7404 CONGESTIONADAS LAS CARRETERAS 
-0.7404 CONGESTIONADAS LAS RUTAS 
-0.7404 CONGESTIONADAS LAS VÍAS 
-0.3010 CONGESTIONADO 15TH AVENUE 
-0.0102 CONGESTIONADO </s> <s> 
-0.0107 CONGESTIONADO ADEMÁS DEL 
-0.3010 CONGESTIONADO ASTER COURT 
-0.3010 CONGESTIONADO AVENUE O 
-0.3010 CONGESTIONADO BRIGHTON 4TH 
-0.3010 CONGESTIONADO DEARBORN COURT 
-1.0212 CONGESTIONADO DEL 15TH 
-1.0212 CONGESTIONADO DEL ASTER 
-1.0212 CONGESTIONADO DEL AVENUE 
-1.0212 CONGESTIONADO DEL BRIGHTON 
-1.0212 CONGESTIONADO DEL DEARBORN 
-1.0212 CONGESTIONADO DEL ELMWOOD 
-1.0212 CONGESTIONADO DEL MC 
-1.0212 CONGESTIONADO DEL OLD 
-1.0212 CONGESTIONADO DEL PAERDEGAT 
-1.0212 CONGESTIONADO DEL SKIDMORE 
-0.3010 CONGESTIONADO ELMWOOD AVENUE 
-0.3010 CONGESTIONADO MC GUINNESS 
-0.3010 CONGESTIONADO OLD MILL 
-0.3010 CONGESTIONADO PAERDEGAT 7TH 
-0.3010 CONGESTIONADO SKIDMORE PLACE 
-0.0322 CONGESTIONADOS </s> <s> 
-0.3010 CONGESTIONADOS AHORA </s> 
-0.1761 CONGESTIONADOS LOS CAMINOS 
-0.1761 CORRECTO </s> <s> 
-0.0005 COURT </s> <s> 
-1.3847 COURT ES ATESTADO 
-1.6857 COURT ES BUENO 
-1.3847 COURT ES CONGESTIONADO 
-1.6857 COURT ES EL 
-1.6857 COURT ES FÁCIL 
-1.3847 COURT ES INTERMITENTE 
-1.3847 COURT ES LENTO 
-1.6857 COURT ES LISO 
-0.7315 COURT ES MÁS 
-1.6857 COURT ES RÁPIDO 
-1.0837 COURT ES UN 
-0.3847 COURT ES UNA 
-1.3847 COURT ES ÁSPERO 
-0.0036 CREE USTED QUE 
-1.2095 CREES QUE 15TH 
-1.2095 CREES QUE ASTER 
-1.2095 CREES QUE AVENUE 
-1.2095 CREES QUE BRIGHTON 
-1.2095 CREES QUE DEARBORN 
-1.2095 CREES QUE ELMWOOD 
-0.5105 CREES QUE LAS 
-1.2095 CREES QUE LOS 
-1.2095 CREES QUE MC 
-1.2095 CREES QUE OLD 
-1.2095 CREES QUE PAERDEGAT 
-1.2095 CREES QUE SKIDMORE 
-0.3979 CREO QUE NO 
-0.3979 CREO QUE SÍ 
-0.0037 CUÁL AUTOPISTA ES 
-0.0037 CUÁL CALLE ES 
-0.0037 CUÁL CAMINO ES 
-0.0037 CUÁL CARRETERA ES 
-0.7861 CUÁL ES UN 
-0.0872 CUÁL ES UNA 
-0.0037 CUÁL RUTA ES 
-0.0037 CUÁL VÍA ES 
-0.0458 CUÁLES AUTOPISTAS SON 
-0.0458 CUÁLES CALLES SON 
-0.0458 CUÁLES CAMINOS SON 
-0.0458 CUÁLES CARRETERAS SON 
-0.0458 CUÁLES RUTAS SON 
-0.3842 CUÁLES SON LAS 
-1.0832 CUÁLES SON LOS 
-0.3842 CUÁLES SON UNAS 
-1.0832 CUÁLES SON UNOS 
-0.0458 CUÁLES VÍAS SON 
-1.9631 DE TRANSITAR 15TH 
-0.4819 DE TRANSITAR </s> 
-0.4280 DE TRANSITAR ADEMÁS 
-1.9631 DE TRANSITAR ASTER 
-1.9631 DE TRANSITAR AVENUE 
-1.9631 DE TRANSITAR BRIGHTON 
-1.9631 DE TRANSITAR DEARBORN 
-0.7290 DE TRANSITAR DEL 
-1.9631 DE TRANSITAR ELMWOOD 
-1.9631 DE TRANSITAR MC 
-1.9631 DE TRANSITAR OLD 
-1.9631 DE TRANSITAR PAERDEGAT 
-1.9631 DE TRANSITAR SKIDMORE 
-0.0495 DEARBORN COURT </s> 
-0.9768 DEARBORN COURT ES 
-0.0012 DEL 15TH AVENUE 
-0.0012 DEL ASTER COURT 
-0.0012 DEL AVENUE O 
-0.0012 DEL BRIGHTON 4TH 
-0.0012 DEL DEARBORN COURT 
-0.0012 DEL ELMWOOD AVENUE 
-0.0012 DEL MC GUINNESS 
-0.0012 DEL OLD MILL 
-0.0012 DEL PAERDEGAT 7TH 
-0.0012 DEL SKIDMORE PLACE 
-0.0969 DEMÁS </s> <s> 
-0.0212 EL CAMINO MÁS 
-0.9777 EL MÁS ATESTADO 
-0.9777 EL MÁS BUENO 
-0.9777 EL MÁS CONGESTIONADO 
-0.9777 EL MÁS FÁCIL 
-0.9777 EL MÁS INTERMITENTE 
-0.9777 EL MÁS LENTO 
-0.9777 EL MÁS LISO 
-0.9777 EL MÁS RÁPIDO 
-0.9777 EL MÁS ÁSPERO 
-0.0495 ELMWOOD AVENUE </s> 
-0.9768 ELMWOOD AVENUE ES 
-0.6435 ES ATESTADA </s> 
-0.1206 ES ATESTADA ADEMÁS 
-0.1698 ES ATESTADO </s> 
-0.5315 ES ATESTADO ADEMÁS 
-0.6435 ES BUENA </s> 
-0.1206 ES BUENA ADEMÁS 
-0.2663 ES BUENO </s> 
-0.3802 ES BUENO ADEMÁS 
-0.6435 ES CONGESTIONADA </s> 
-0.1206 ES CONGESTIONADA ADEMÁS 
-0.1698 ES CONGESTIONADO </s> 
-0.5315 ES CONGESTIONADO ADEMÁS 
-0.1761 ES CORRECTO </s> 
-0.2900 ES EL CAMINO 
-0.3358 ES EL MÁS 
-0.1761 ES FALSO </s> 
-0.0049 ES FÁCIL DE 
-0.4159 ES INTERMITENTE </s> 
-0.2175 ES INTERMITENTE ADEMÁS 
-0.0048 ES LA MÁS 
-0.6435 ES LENTA </s> 
-0.1206 ES LENTA ADEMÁS 
-0.1698 ES LENTO </s> 
-0.5315 ES LENTO ADEMÁS 
-0.6435 ES LISA </s> 
-0.1206 ES LISA ADEMÁS 
-0.2663 ES LISO </s> 
-0.3802 ES LISO ADEMÁS 
-1.0950 ES MÁS ATESTADA 
-1.5132 ES MÁS ATESTADO 
-1.0950 ES MÁS BUENA 
-1.5132 ES MÁS BUENO 
-1.0950 ES MÁS CONGESTIONADA 
-1.5132 ES MÁS CONGESTIONADO 
-0.9546 ES MÁS FÁCIL 
-0.9546 ES MÁS INTERMITENTE 
-1.0950 ES MÁS LENTA 
-1.5132 ES MÁS LENTO 
-1.0950 ES MÁS LISA 
-1.5132 ES MÁS LISO 
-1.0950 ES MÁS RÁPIDA 
-1.5132 ES MÁS RÁPIDO 
-1.0950 ES MÁS ÁSPERA 
-1.5132 ES MÁS ÁSPERO 
-0.6435 ES RÁPIDA </s> 
-0.1206 ES RÁPIDA ADEMÁS 
-0.2663 ES RÁPIDO </s> 
-0.3802 ES RÁPIDO ADEMÁS 
-0.0044 ES UN CAMINO 
-0.6999 ES UNA AUTOPISTA 
-0.6999 ES UNA CALLE 
-0.6999 ES UNA CARRETERA 
-0.6999 ES UNA RUTA 
-0.6999 ES UNA VÍA 
-0.6435 ES ÁSPERA </s> 
-0.1206 ES ÁSPERA ADEMÁS 
-0.1698 ES ÁSPERO </s> 
-0.5315 ES ÁSPERO ADEMÁS 
-0.1761 FALSO </s> <s> 
-0.0007 FÁCIL DE TRANSITAR 
-0.0072 FÁCILES DE TRANSITAR 
-0.0495 GUINNESS BOULEVARD </s> 
-0.9768 GUINNESS BOULEVARD ES 
-1.7889 HAY ADEMÁS </s> 
-0.0107 HAY ADEMÁS DEL 
-0.7782 HAY AUTOPISTAS ATESTADAS 
-0.7782 HAY AUTOPISTAS CONGESTIONADAS 
-0.7782 HAY AUTOPISTAS INTERMITENTES 
-0.7782 HAY AUTOPISTAS LENTAS 
-0.7782 HAY AUTOPISTAS ÁSPERAS 
-0.7782 HAY CALLES ATESTADAS 
-0.7782 HAY CALLES CONGESTIONADAS 
-0.7782 HAY CALLES INTERMITENTES 
-0.7782 HAY CALLES LENTAS 
-0.7782 HAY CALLES ÁSPERAS 
-0.7782 HAY CAMINOS ATESTADOS 
-0.7782 HAY CAMINOS CONGESTIONADOS 
-0.7782 HAY CAMINOS INTERMITENTES 
-0.7782 HAY CAMINOS LENTOS 
-0.7782 HAY CAMINOS ÁSPEROS 
-0.7782 HAY CARRETERAS ATESTADAS 
-0.7782 HAY CARRETERAS CONGESTIONADAS 
-0.7782 HAY CARRETERAS INTERMITENTES 
-0.7782 HAY CARRETERAS LENTAS 
-0.7782 HAY CARRETERAS ÁSPERAS 
-0.6997 HAY OTRA AUTOPISTA 
-0.6997 HAY OTRA CALLE 
-0.6997 HAY OTRA CARRETERA 
-0.6997 HAY OTRA RUTA 
-0.6997 HAY OTRA VÍA 
-0.7085 HAY OTRAS AUTOPISTAS 
-0.7085 HAY OTRAS CALLES 
-0.7085 HAY OTRAS CARRETERAS 
-0.7085 HAY OTRAS RUTAS 
-0.7085 HAY OTRAS VÍAS 
-0.0036 HAY OTRO CAMINO 
-0.0458 HAY OTROS CAMINOS 
-0.7782 HAY RUTAS ATESTADAS 
-0.7782 HAY RUTAS CONGESTIONADAS 
-0.7782 HAY RUTAS INTERMITENTES 
-0.7782 HAY RUTAS LENTAS 
-0.7782 HAY RUTAS ÁSPERAS 
-0.7782 HAY VÍAS ATESTADAS 
-0.7782 HAY VÍAS CONGESTIONADAS 
-0.7782 HAY VÍAS INTERMITENTES 
-0.7782 HAY VÍAS LENTAS 
-0.7782 HAY VÍAS ÁSPERAS 
-0.3010 INTERMITENTE 15TH AVENUE 
-0.0042 INTERMITENTE </s> <s> 
-0.0018 INTERMITENTE ADEMÁS DEL 
-0.3010 INTERMITENTE ASTER COURT 
-0.3010 INTERMITENTE AVENUE O 
-0.3010 INTERMITENTE BRIGHTON 4TH 
-0.3010 INTERMITENTE DEARBORN COURT 
-1.0036 INTERMITENTE DEL 15TH 
-1.0036 INTERMITENTE DEL ASTER 
-1.0036 INTERMITENTE DEL AVENUE 
-1.0036 INTERMITENTE DEL BRIGHTON 
-1.0036 INTERMITENTE DEL DEARBORN 
-1.0036 INTERMITENTE DEL ELMWOOD 
-1.0036 INTERMITENTE DEL MC 
-1.0036 INTERMITENTE DEL OLD 
-1.0036 INTERMITENTE DEL PAERDEGAT 
-1.0036 INTERMITENTE DEL SKIDMORE 
-0.3010 INTERMITENTE ELMWOOD AVENUE 
-0.3010 INTERMITENTE MC GUINNESS 
-0.3010 INTERMITENTE OLD MILL 
-0.3010 INTERMITENTE PAERDEGAT 7TH 
-0.3010 INTERMITENTE SKIDMORE PLACE 
-0.0056 INTERMITENTES </s> <s> 
-0.0669 INTERMITENTES AHORA </s> 
-0.7404 INTERMITENTES LAS AUTOPISTAS 
-0.7404 INTERMITENTES LAS CALLES 
-0.7404 INTERMITENTES LAS CARRETERAS 
-0.7404 INTERMITENTES LAS RUTAS 
-0.7404 INTERMITENTES LAS VÍAS 
-0.1761 INTERMITENTES LOS CAMINOS 
-0.9590 LA MÁS ATESTADA 
-0.9590 LA MÁS BUENA 
-0.9590 LA MÁS CONGESTIONADA 
-0.9590 LA MÁS FÁCIL 
-0.9590 LA MÁS INTERMITENTE 
-0.9590 LA MÁS LENTA 
-0.9590 LA MÁS LISA 
-0.9590 LA MÁS RÁPIDA 
-0.9590 LA MÁS ÁSPERA 
-0.0011 LANE </s> <s> 
-1.3892 LANE ES ATESTADO 
-1.6902 LANE ES BUENO 
-1.3892 LANE ES CONGESTIONADO 
-1.6902 LANE ES EL 
-1.6902 LANE ES FÁCIL 
-1.3892 LANE ES INTERMITENTE 
-1.3892 LANE ES LENTO 
-1.6902 LANE ES LISO 
-0.7360 LANE ES MÁS 
-1.6902 LANE ES RÁPIDO 
-1.0881 LANE ES UN 
-0.3892 LANE ES UNA 
-1.3892 LANE ES ÁSPERO 
-0.9445 LAS AUTOPISTAS </s> 
-0.9445 LAS AUTOPISTAS AHORA 
-1.3424 LAS AUTOPISTAS ATESTADAS 
-1.3424 LAS AUTOPISTAS BUENAS 
-1.3424 LAS AUTOPISTAS CONGESTIONADAS 
-1.3424 LAS AUTOPISTAS FÁCILES 
-1.3424 LAS AUTOPISTAS INTERMITENTES 
-1.3424 LAS AUTOPISTAS LENTAS 
-1.3424 LAS AUTOPISTAS LISAS 
-1.3424 LAS AUTOPISTAS RÁPIDAS 
-0.4674 LAS AUTOPISTAS SON 
-1.3424 LAS AUTOPISTAS ÁSPERAS 
-0.9445 LAS CALLES </s> 
-0.9445 LAS CALLES AHORA 
-1.3424 LAS CALLES ATESTADAS 
-1.3424 LAS CALLES BUENAS 
-1.3424 LAS CALLES CONGESTIONADAS 
-1.3424 LAS CALLES FÁCILES 
-1.3424 LAS CALLES INTERMITENTES 
-1.3424 LAS CALLES LENTAS 
-1.3424 LAS CALLES LISAS 
-1.3424 LAS CALLES RÁPIDAS 
-0.4674 LAS CALLES SON 
-1.3424 LAS CALLES ÁSPERAS 
-0.9445 LAS CARRETERAS </s> 
-0.9445 LAS CARRETERAS AHORA 
-1.3424 LAS CARRETERAS ATESTADAS 
-1.3424 LAS CARRETERAS BUENAS 
-1.3424 LAS CARRETERAS CONGESTIONADAS 
-1.3424 LAS CARRETERAS FÁCILES 
-1.3424 LAS CARRETERAS INTERMITENTES 
-1.3424 LAS CARRETERAS LENTAS 
-1.3424 LAS CARRETERAS LISAS 
-1.3424 LAS CARRETERAS RÁPIDAS 
-0.4674 LAS CARRETERAS SON 
-1.3424 LAS CARRETERAS ÁSPERAS 
-0.9445 LAS RUTAS </s> 
-0.9445 LAS RUTAS AHORA 
-1.3424 LAS RUTAS ATESTADAS 
-1.3424 LAS RUTAS BUENAS 
-1.3424 LAS RUTAS CONGESTIONADAS 
-1.3424 LAS RUTAS FÁCILES 
-1.3424 LAS RUTAS INTERMITENTES 
-1.3424 LAS RUTAS LENTAS 
-1.3424 LAS RUTAS LISAS 
-1.3424 LAS RUTAS RÁPIDAS 
-0.4674 LAS RUTAS SON 
-1.3424 LAS RUTAS ÁSPERAS 
-0.9445 LAS VÍAS </s> 
-0.9445 LAS VÍAS AHORA 
-1.3424 LAS VÍAS ATESTADAS 
-1.3424 LAS VÍAS BUENAS 
-1.3424 LAS VÍAS CONGESTIONADAS 
-1.3424 LAS VÍAS FÁCILES 
-1.3424 LAS VÍAS INTERMITENTES 
-1.3424 LAS VÍAS LENTAS 
-1.3424 LAS VÍAS LISAS 
-1.3424 LAS VÍAS RÁPIDAS 
-0.4674 LAS VÍAS SON 
-1.3424 LAS VÍAS ÁSPERAS 
-0.0072 LENTA </s> <s> 
-0.0022 LENTA ADEMÁS DEL 
-1.0043 LENTA DEL 15TH 
-1.0043 LENTA DEL ASTER 
-1.0043 LENTA DEL AVENUE 
-1.0043 LENTA DEL BRIGHTON 
-1.0043 LENTA DEL DEARBORN 
-1.0043 LENTA DEL ELMWOOD 
-1.0043 LENTA DEL MC 
-1.0043 LENTA DEL OLD 
-1.0043 LENTA DEL PAERDEGAT 
-1.0043 LENTA DEL SKIDMORE 
-0.0066 LENTAS </s> <s> 
-0.0792 LENTAS AHORA </s> 
-0.7404 LENTAS LAS AUTOPISTAS 
-0.7404 LENTAS LAS CALLES 
-0.7404 LENTAS LAS CARRETERAS 
-0.7404 LENTAS LAS RUTAS 
-0.7404 LENTAS LAS VÍAS 
-0.3010 LENTO 15TH AVENUE 
-0.0102 LENTO </s> <s> 
-0.0107 LENTO ADEMÁS DEL 
-0.3010 LENTO ASTER COURT 
-0.3010 LENTO AVENUE O 
-0.3010 LENTO BRIGHTON 4TH 
-0.3010 LENTO DEARBORN COURT 
-1.0212 LENTO DEL 15TH 
-1.0212 LENTO DEL ASTER 
-1.0212 LENTO DEL AVENUE 
-1.0212 LENTO DEL BRIGHTON 
-1.0212 LENTO DEL DEARBORN 
-1.0212 LENTO DEL ELMWOOD 
-1.0212 LENTO DEL MC 
-1.0212 LENTO DEL OLD 
-1.0212 LENTO DEL PAERDEGAT 
-1.0212 LENTO DEL SKIDMORE 
-0.3010 LENTO ELMWOOD AVENUE 
-0.3010 LENTO MC GUINNESS 
-0.3010 LENTO OLD MILL 
-0.3010 LENTO PAERDEGAT 7TH 
-0.3010 LENTO SKIDMORE PLACE 
-0.0322 LENTOS </s> <s> 
-0.3010 LENTOS AHORA </s> 
-0.1761 LENTOS LOS CAMINOS 
-0.0792 LISA 15TH AVENUE 
-0.0039 LISA </s> <s> 
-0.0022 LISA ADEMÁS DEL 
-0.0792 LISA ASTER COURT 
-0.0792 LISA AVENUE O 
-0.0792 LISA BRIGHTON 4TH 
-0.0792 LISA DEARBORN COURT 
-1.0043 LISA DEL 15TH 
-1.0043 LISA DEL ASTER 
-1.0043 LISA DEL AVENUE 
-1.0043 LISA DEL BRIGHTON 
-1.0043 LISA DEL DEARBORN 
-1.0043 LISA DEL ELMWOOD 
-1.0043 LISA DEL MC 
-1.0043 LISA DEL OLD 
-1.0043 LISA DEL PAERDEGAT 
-1.0043 LISA DEL SKIDMORE 
-0.0792 LISA ELMWOOD AVENUE 
-0.0792 LISA MC GUINNESS 
-0.0792 LISA OLD MILL 
-0.0792 LISA PAERDEGAT 7TH 
-0.0792 LISA SKIDMORE PLACE 
-0.0086 LISAS </s> <s> 
-0.1249 LISO 15TH AVENUE 
-0.0083 LISO </s> <s> 
-0.0107 LISO ADEMÁS DEL 
-0.1249 LISO ASTER COURT 
-0.1249 LISO AVENUE O 
-0.1249 LISO BRIGHTON 4TH 
-0.1249 LISO DEARBORN COURT 
-1.0212 LISO DEL 15TH 
-1.0212 LISO DEL ASTER 
-1.0212 LISO DEL AVENUE 
-1.0212 LISO DEL BRIGHTON 
-1.0212 LISO DEL DEARBORN 
-1.0212 LISO DEL ELMWOOD 
-1.0212 LISO DEL MC 
-1.0212 LISO DEL OLD 
-1.0212 LISO DEL PAERDEGAT 
-1.0212 LISO DEL SKIDMORE 
-0.1249 LISO ELMWOOD AVENUE 
-0.1249 LISO MC GUINNESS 
-0.1249 LISO OLD MILL 
-0.1249 LISO PAERDEGAT 7TH 
-0.1249 LISO SKIDMORE PLACE 
-0.0414 LISOS </s> <s> 
-0.9445 LOS CAMINOS </s> 
-0.9445 LOS CAMINOS AHORA 
-1.3424 LOS CAMINOS ATESTADOS 
-1.3424 LOS CAMINOS BUENOS 
-1.3424 LOS CAMINOS CONGESTIONADOS 
-1.3424 LOS CAMINOS FÁCILES 
-1.3424 LOS CAMINOS INTERMITENTES 
-1.3424 LOS CAMINOS LENTOS 
-1.3424 LOS CAMINOS LISOS 
-1.3424 LOS CAMINOS RÁPIDOS 
-0.4674 LOS CAMINOS SON 
-1.3424 LOS CAMINOS ÁSPEROS 
-0.0010 MC GUINNESS BOULEVARD 
-0.0495 MILL ROAD </s> 
-0.9768 MILL ROAD ES 
-0.7818 MÁS ATESTADA </s> 
-0.0828 MÁS ATESTADA DEL 
-1.6532 MÁS ATESTADO 15TH 
-0.5071 MÁS ATESTADO </s> 
-1.6532 MÁS ATESTADO ASTER 
-1.6532 MÁS ATESTADO AVENUE 
-1.6532 MÁS ATESTADO BRIGHTON 
-1.6532 MÁS ATESTADO DEARBORN 
-0.3522 MÁS ATESTADO DEL 
-1.6532 MÁS ATESTADO ELMWOOD 
-1.6532 MÁS ATESTADO MC 
-1.6532 MÁS ATESTADO OLD 
-1.6532 MÁS ATESTADO PAERDEGAT 
-1.6532 MÁS ATESTADO SKIDMORE 
-0.7818 MÁS BUENA </s> 
-0.0828 MÁS BUENA DEL 
-1.6532 MÁS BUENO 15TH 
-0.5071 MÁS BUENO </s> 
-1.6532 MÁS BUENO ASTER 
-1.6532 MÁS BUENO AVENUE 
-1.6532 MÁS BUENO BRIGHTON 
-1.6532 MÁS BUENO DEARBORN 
-0.3522 MÁS BUENO DEL 
-1.6532 MÁS BUENO ELMWOOD 
-1.6532 MÁS BUENO MC 
-1.6532 MÁS BUENO OLD 
-1.6532 MÁS BUENO PAERDEGAT 
-1.6532 MÁS BUENO SKIDMORE 
-0.7818 MÁS CONGESTIONADA </s> 
-0.0828 MÁS CONGESTIONADA DEL 
-1.6532 MÁS CONGESTIONADO 15TH 
-0.5071 MÁS CONGESTIONADO </s> 
-1.6532 MÁS CONGESTIONADO ASTER 
-1.6532 MÁS CONGESTIONADO AVENUE 
-1.6532 MÁS CONGESTIONADO BRIGHTON 
-1.6532 MÁS CONGESTIONADO DEARBORN 
-0.3522 MÁS CONGESTIONADO DEL 
-1.6532 MÁS CONGESTIONADO ELMWOOD 
-1.6532 MÁS CONGESTIONADO MC 
-1.6532 MÁS CONGESTIONADO OLD 
-1.6532 MÁS CONGESTIONADO PAERDEGAT 
-1.6532 MÁS CONGESTIONADO SKIDMORE 
-0.0026 MÁS FÁCIL DE 
-2.2175 MÁS INTERMITENTE 15TH 
-0.6860 MÁS INTERMITENTE </s> 
-2.2175 MÁS INTERMITENTE ASTER 
-2.2175 MÁS INTERMITENTE AVENUE 
-2.2175 MÁS INTERMITENTE BRIGHTON 
-2.2175 MÁS INTERMITENTE DEARBORN 
-0.1383 MÁS INTERMITENTE DEL 
-2.2175 MÁS INTERMITENTE ELMWOOD 
-2.2175 MÁS INTERMITENTE MC 
-2.2175 MÁS INTERMITENTE OLD 
-2.2175 MÁS INTERMITENTE PAERDEGAT 
-2.2175 MÁS INTERMITENTE SKIDMORE 
-0.7818 MÁS LENTA </s> 
-0.0828 MÁS LENTA DEL 
-1.6532 MÁS LENTO 15TH 
-0.5071 MÁS LENTO </s> 
-1.6532 MÁS LENTO ASTER 
-1.6532 MÁS LENTO AVENUE 
-1.6532 MÁS LENTO BRIGHTON 
-1.6532 MÁS LENTO DEARBORN 
-0.3522 MÁS LENTO DEL 
-1.6532 MÁS LENTO ELMWOOD 
-1.6532 MÁS LENTO MC 
-1.6532 MÁS LENTO OLD 
-1.6532 MÁS LENTO PAERDEGAT 
-1.6532 MÁS LENTO SKIDMORE 
-0.7818 MÁS LISA </s> 
-0.0828 MÁS LISA DEL 
-1.5119 MÁS LISO 15TH 
-0.4327 MÁS LISO </s> 
-1.5119 MÁS LISO ASTER 
-1.5119 MÁS LISO AVENUE 
-1.5119 MÁS LISO BRIGHTON 
-1.5119 MÁS LISO DEARBORN 
-0.5119 MÁS LISO DEL 
-1.5119 MÁS LISO ELMWOOD 
-1.5119 MÁS LISO MC 
-1.5119 MÁS LISO OLD 
-1.5119 MÁS LISO PAERDEGAT 
-1.5119 MÁS LISO SKIDMORE 
-0.7818 MÁS RÁPIDA </s> 
-0.0828 MÁS RÁPIDA DEL 
-1.6532 MÁS RÁPIDO 15TH 
-0.5071 MÁS RÁPIDO </s> 
-1.6532 MÁS RÁPIDO ASTER 
-1.6532 MÁS RÁPIDO AVENUE 
-1.6532 MÁS RÁPIDO BRIGHTON 
-1.6532 MÁS RÁPIDO DEARBORN 
-0.3522 MÁS RÁPIDO DEL 
-1.6532 MÁS RÁPIDO ELMWOOD 
-1.6532 MÁS RÁPIDO MC 
-1.6532 MÁS RÁPIDO OLD 
-1.6532 MÁS RÁPIDO PAERDEGAT 
-1.6532 MÁS RÁPIDO SKIDMORE 
-0.7818 MÁS ÁSPERA </s> 
-0.0828 MÁS ÁSPERA DEL 
-1.6532 MÁS ÁSPERO 15TH 
-0.5071 MÁS ÁSPERO </s> 
-1.6532 MÁS ÁSPERO ASTER 
-1.6532 MÁS ÁSPERO AVENUE 
-1.6532 MÁS ÁSPERO BRIGHTON 
-1.6532 MÁS ÁSPERO DEARBORN 
-0.3522 MÁS ÁSPERO DEL 
-1.6532 MÁS ÁSPERO ELMWOOD 
-1.6532 MÁS ÁSPERO MC 
-1.6532 MÁS ÁSPERO OLD 
-1.6532 MÁS ÁSPERO PAERDEGAT 
-1.6532 MÁS ÁSPERO SKIDMORE 
-0.0669 NO </s> <s> 
-0.1761 NO ES CORRECTO 
-0.1761 NO, ES FALSO 
-0.0011 O </s> <s> 
-1.3892 O ES ATESTADO 
-1.6902 O ES BUENO 
-1.3892 O ES CONGESTIONADO 
-1.6902 O ES EL 
-1.6902 O ES FÁCIL 
-1.3892 O ES INTERMITENTE 
-1.3892 O ES LENTO 
-1.6902 O ES LISO 
-0.7360 O ES MÁS 
-1.6902 O ES RÁPIDO 
-1.0881 O ES UN 
-0.3892 O ES UNA 
-1.3892 O ES ÁSPERO 
-0.1761 OKAY </s> <s> 
-0.0010 OLD MILL ROAD 
-0.9004 OTRA AUTOPISTA ADEMÁS 
-1.1600 OTRA AUTOPISTA ATESTADA 
-1.1600 OTRA AUTOPISTA BUENA 
-1.1600 OTRA AUTOPISTA CONGESTIONADA 
-0.6829 OTRA AUTOPISTA ES 
-1.1600 OTRA AUTOPISTA FÁCIL 
-1.3775 OTRA AUTOPISTA HAY 
-1.1600 OTRA AUTOPISTA INTERMITENTE 
-1.1600 OTRA AUTOPISTA LENTA 
-1.1600 OTRA AUTOPISTA LISA 
-1.1600 OTRA AUTOPISTA RÁPIDA 
-1.1600 OTRA AUTOPISTA ÁSPERA 
-0.9004 OTRA CALLE ADEMÁS 
-1.1600 OTRA CALLE ATESTADA 
-1.1600 OTRA CALLE BUENA 
-1.1600 OTRA CALLE CONGESTIONADA 
-0.6829 OTRA CALLE ES 
-1.1600 OTRA CALLE FÁCIL 
-1.3775 OTRA CALLE HAY 
-1.1600 OTRA CALLE INTERMITENTE 
-1.1600 OTRA CALLE LENTA 
-1.1600 OTRA CALLE LISA 
-1.1600 OTRA CALLE RÁPIDA 
-1.1600 OTRA CALLE ÁSPERA 
-0.9004 OTRA CARRETERA ADEMÁS 
-1.1600 OTRA CARRETERA ATESTADA 
-1.1600 OTRA CARRETERA BUENA 
-1.1600 OTRA CARRETERA CONGESTIONADA 
-0.6829 OTRA CARRETERA ES 
-1.1600 OTRA CARRETERA FÁCIL 
-1.3775 OTRA CARRETERA HAY 
-1.1600 OTRA CARRETERA INTERMITENTE 
-1.1600 OTRA CARRETERA LENTA 
-1.1600 OTRA CARRETERA LISA 
-1.1600 OTRA CARRETERA RÁPIDA 
-1.1600 OTRA CARRETERA ÁSPERA 
-0.9004 OTRA RUTA ADEMÁS 
-1.1600 OTRA RUTA ATESTADA 
-1.1600 OTRA RUTA BUENA 
-1.1600 OTRA RUTA CONGESTIONADA 
-0.6829 OTRA RUTA ES 
-1.1600 OTRA RUTA FÁCIL 
-1.3775 OTRA RUTA HAY 
-1.1600 OTRA RUTA INTERMITENTE 
-1.1600 OTRA RUTA LENTA 
-1.1600 OTRA RUTA LISA 
-1.1600 OTRA RUTA RÁPIDA 
-1.1600 OTRA RUTA ÁSPERA 
-0.9004 OTRA VÍA ADEMÁS 
-1.1600 OTRA VÍA ATESTADA 
-1.1600 OTRA VÍA BUENA 
-1.1600 OTRA VÍA CONGESTIONADA 
-0.6829 OTRA VÍA ES 
-1.1600 OTRA VÍA FÁCIL 
-1.3775 OTRA VÍA HAY 
-1.1600 OTRA VÍA INTERMITENTE 
-1.1600 OTRA VÍA LENTA 
-1.1600 OTRA VÍA LISA 
-1.1600 OTRA VÍA RÁPIDA 
-1.1600 OTRA VÍA ÁSPERA 
-1.0911 OTRAS AUTOPISTAS ATESTADAS 
-1.0911 OTRAS AUTOPISTAS BUENAS 
-1.0911 OTRAS AUTOPISTAS CONGESTIONADAS 
-1.0911 OTRAS AUTOPISTAS FÁCILES 
-1.0911 OTRAS AUTOPISTAS INTERMITENTES 
-1.0911 OTRAS AUTOPISTAS LENTAS 
-1.0911 OTRAS AUTOPISTAS LISAS 
-1.0911 OTRAS AUTOPISTAS RÁPIDAS 
-0.6140 OTRAS AUTOPISTAS SON 
-1.0911 OTRAS AUTOPISTAS ÁSPERAS 
-1.0911 OTRAS CALLES ATESTADAS 
-1.0911 OTRAS CALLES BUENAS 
-1.0911 OTRAS CALLES CONGESTIONADAS 
-1.0911 OTRAS CALLES FÁCILES 
-1.0911 OTRAS CALLES INTERMITENTES 
-1.0911 OTRAS CALLES LENTAS 
-1.0911 OTRAS CALLES LISAS 
-1.0911 OTRAS CALLES RÁPIDAS 
-0.6140 OTRAS CALLES SON 
-1.0911 OTRAS CALLES ÁSPERAS 
-1.0911 OTRAS CARRETERAS ATESTADAS 
-1.0911 OTRAS CARRETERAS BUENAS 
-1.0911 OTRAS CARRETERAS CONGESTIONADAS 
-1.0911 OTRAS CARRETERAS FÁCILES 
-1.0911 OTRAS CARRETERAS INTERMITENTES 
-1.0911 OTRAS CARRETERAS LENTAS 
-1.0911 OTRAS CARRETERAS LISAS 
-1.0911 OTRAS CARRETERAS RÁPIDAS 
-0.6140 OTRAS CARRETERAS SON 
-1.0911 OTRAS CARRETERAS ÁSPERAS 
-1.0911 OTRAS RUTAS ATESTADAS 
-1.0911 OTRAS RUTAS BUENAS 
-1.0911 OTRAS RUTAS CONGESTIONADAS 
-1.0911 OTRAS RUTAS FÁCILES 
-1.0911 OTRAS RUTAS INTERMITENTES 
-1.0911 OTRAS RUTAS LENTAS 
-1.0911 OTRAS RUTAS LISAS 
-1.0911 OTRAS RUTAS RÁPIDAS 
-0.6140 OTRAS RUTAS SON 
-1.0911 OTRAS RUTAS ÁSPERAS 
-1.0911 OTRAS VÍAS ATESTADAS 
-1.0911 OTRAS VÍAS BUENAS 
-1.0911 OTRAS VÍAS CONGESTIONADAS 
-1.0911 OTRAS VÍAS FÁCILES 
-1.0911 OTRAS VÍAS INTERMITENTES 
-1.0911 OTRAS VÍAS LENTAS 
-1.0911 OTRAS VÍAS LISAS 
-1.0911 OTRAS VÍAS RÁPIDAS 
-0.6140 OTRAS VÍAS SON 
-1.0911 OTRAS VÍAS ÁSPERAS 
-0.9004 OTRO CAMINO ADEMÁS 
-1.1600 OTRO CAMINO ATESTADO 
-1.1600 OTRO CAMINO BUENO 
-1.1600 OTRO CAMINO CONGESTIONADO 
-0.6829 OTRO CAMINO ES 
-1.1600 OTRO CAMINO FÁCIL 
-1.3775 OTRO CAMINO HAY 
-1.1600 OTRO CAMINO INTERMITENTE 
-1.1600 OTRO CAMINO LENTO 
-1.1600 OTRO CAMINO LISO 
-1.1600 OTRO CAMINO RÁPIDO 
-1.1600 OTRO CAMINO ÁSPERO 
-1.0911 OTROS CAMINOS ATESTADOS 
-1.0911 OTROS CAMINOS BUENOS 
-1.0911 OTROS CAMINOS CONGESTIONADOS 
-1.0911 OTROS CAMINOS FÁCILES 
-1.0911 OTROS CAMINOS INTERMITENTES 
-1.0911 OTROS CAMINOS LENTOS 
-1.0911 OTROS CAMINOS LISOS 
-1.0911 OTROS CAMINOS RÁPIDOS 
-0.6140 OTROS CAMINOS SON 
-1.0911 OTROS CAMINOS ÁSPEROS 
-0.0010 PAERDEGAT 7TH STREET 
-0.3979 PARECE QUE NO 
-0.3979 PARECE QUE SÍ 
-0.0011 PLACE </s> <s> 
-1.3892 PLACE ES ATESTADO 
-1.6902 PLACE ES BUENO 
-1.3892 PLACE ES CONGESTIONADO 
-1.6902 PLACE ES EL 
-1.6902 PLACE ES FÁCIL 
-1.3892 PLACE ES INTERMITENTE 
-1.3892 PLACE ES LENTO 
-1.6902 PLACE ES LISO 
-0.7360 PLACE ES MÁS 
-1.6902 PLACE ES RÁPIDO 
-1.0881 PLACE ES UN 
-0.3892 PLACE ES UNA 
-1.3892 PLACE ES ÁSPERO 
-0.0300 QUE 15TH AVENUE 
-0.0300 QUE ASTER COURT 
-0.0300 QUE AVENUE O 
-0.0300 QUE BRIGHTON 4TH 
-0.0300 QUE DEARBORN COURT 
-0.0300 QUE ELMWOOD AVENUE 
-0.7076 QUE LAS AUTOPISTAS 
-0.7076 QUE LAS CALLES 
-0.7076 QUE LAS CARRETERAS 
-0.7076 QUE LAS RUTAS 
-0.7076 QUE LAS VÍAS 
-0.0414 QUE LOS CAMINOS 
-0.0300 QUE MC GUINNESS 
-0.0969 QUE NO </s> 
-0.0300 QUE OLD MILL 
-0.0300 QUE PAERDEGAT 7TH 
-0.0300 QUE SKIDMORE PLACE 
-0.0969 QUE SÍ </s> 
-0.1761 QUÉ ADEMÁS </s> 
-0.0037 QUÉ AUTOPISTA ES 
-0.0458 QUÉ AUTOPISTAS SON 
-0.0037 QUÉ CALLE ES 
-0.0458 QUÉ CALLES SON 
-0.0037 QUÉ CAMINO ES 
-0.0458 QUÉ CAMINOS SON 
-0.0037 QUÉ CARRETERA ES 
-0.0458 QUÉ CARRETERAS SON 
-0.1761 QUÉ DEMÁS </s> 
-0.7861 QUÉ ES UN 
-0.0872 QUÉ ES UNA 
-0.1761 QUÉ HAY ADEMÁS 
-0.6993 QUÉ OTRA AUTOPISTA 
-0.6993 QUÉ OTRA CALLE 
-0.6993 QUÉ OTRA CARRETERA 
-0.6993 QUÉ OTRA RUTA 
-0.6993 QUÉ OTRA VÍA 
-0.7038 QUÉ OTRAS AUTOPISTAS 
-0.7038 QUÉ OTRAS CALLES 
-0.7038 QUÉ OTRAS CARRETERAS 
-0.7038 QUÉ OTRAS RUTAS 
-0.7038 QUÉ OTRAS VÍAS 
-0.0018 QUÉ OTRO CAMINO 
-0.0235 QUÉ OTROS CAMINOS 
-0.0037 QUÉ RUTA ES 
-0.0458 QUÉ RUTAS SON 
-0.3842 QUÉ SON LAS 
-1.0832 QUÉ SON LOS 
-0.3842 QUÉ SON UNAS 
-1.0832 QUÉ SON UNOS 
-0.0037 QUÉ VÍA ES 
-0.0458 QUÉ VÍAS SON 
-0.0011 ROAD </s> <s> 
-1.3892 ROAD ES ATESTADO 
-1.6902 ROAD ES BUENO 
-1.3892 ROAD ES CONGESTIONADO 
-1.6902 ROAD ES EL 
-1.6902 ROAD ES FÁCIL 
-1.3892 ROAD ES INTERMITENTE 
-1.3892 ROAD ES LENTO 
-1.6902 ROAD ES LISO 
-0.7360 ROAD ES MÁS 
-1.6902 ROAD ES RÁPIDO 
-1.0881 ROAD ES UN 
-0.3892 ROAD ES UNA 
-1.3892 ROAD ES ÁSPERO 
-0.0072 RUTA ADEMÁS DEL 
-0.8573 RUTA ATESTADA </s> 
-0.0792 RUTA ATESTADA ADEMÁS 
-1.7482 RUTA BUENA 15TH 
-0.5721 RUTA BUENA </s> 
-0.2711 RUTA BUENA ADEMÁS 
-1.7482 RUTA BUENA ASTER 
-1.7482 RUTA BUENA AVENUE 
-1.7482 RUTA BUENA BRIGHTON 
-1.7482 RUTA BUENA DEARBORN 
-1.7482 RUTA BUENA ELMWOOD 
-1.7482 RUTA BUENA MC 
-1.7482 RUTA BUENA OLD 
-1.7482 RUTA BUENA PAERDEGAT 
-1.7482 RUTA BUENA SKIDMORE 
-0.8573 RUTA CONGESTIONADA </s> 
-0.0792 RUTA CONGESTIONADA ADEMÁS 
-1.4098 RUTA ES ATESTADA 
-1.4098 RUTA ES BUENA 
-1.4098 RUTA ES CONGESTIONADA 
-1.4098 RUTA ES FÁCIL 
-1.4098 RUTA ES INTERMITENTE 
-1.2685 RUTA ES LA 
-1.4098 RUTA ES LENTA 
-1.4098 RUTA ES LISA 
-0.2271 RUTA ES MÁS 
-1.4098 RUTA ES RÁPIDA 
-1.4098 RUTA ES ÁSPERA 
-0.0078 RUTA FÁCIL DE 
-0.0212 RUTA HAY ADEMÁS 
-0.8573 RUTA INTERMITENTE </s> 
-0.0792 RUTA INTERMITENTE ADEMÁS 
-0.8573 RUTA LENTA </s> 
-0.0792 RUTA LENTA ADEMÁS 
-1.7482 RUTA LISA 15TH 
-0.5721 RUTA LISA </s> 
-0.2711 RUTA LISA ADEMÁS 
-1.7482 RUTA LISA ASTER 
-1.7482 RUTA LISA AVENUE 
-1.7482 RUTA LISA BRIGHTON 
-1.7482 RUTA LISA DEARBORN 
-1.7482 RUTA LISA ELMWOOD 
-1.7482 RUTA LISA MC 
-1.7482 RUTA LISA OLD 
-1.7482 RUTA LISA PAERDEGAT 
-1.7482 RUTA LISA SKIDMORE 
-1.7482 RUTA RÁPIDA 15TH 
-0.5721 RUTA RÁPIDA </s> 
-0.2711 RUTA RÁPIDA ADEMÁS 
-1.7482 RUTA RÁPIDA ASTER 
-1.7482 RUTA RÁPIDA AVENUE 
-1.7482 RUTA RÁPIDA BRIGHTON 
-1.7482 RUTA RÁPIDA DEARBORN 
-1.7482 RUTA RÁPIDA ELMWOOD 
-1.7482 RUTA RÁPIDA MC 
-1.7482 RUTA RÁPIDA OLD 
-1.7482 RUTA RÁPIDA PAERDEGAT 
-1.7482 RUTA RÁPIDA SKIDMORE 
-0.8573 RUTA ÁSPERA </s> 
-0.0792 RUTA ÁSPERA ADEMÁS 
-0.0792 RUTAS </s> <s> 
-0.0792 RUTAS AHORA </s> 
-0.0512 RUTAS ATESTADAS </s> 
-0.0580 RUTAS BUENAS </s> 
-0.0512 RUTAS CONGESTIONADAS </s> 
-0.0580 RUTAS FÁCILES DE 
-0.0512 RUTAS INTERMITENTES </s> 
-0.0512 RUTAS LENTAS </s> 
-0.0580 RUTAS LISAS </s> 
-0.0580 RUTAS RÁPIDAS </s> 
-0.8553 RUTAS SON ATESTADAS 
-1.1563 RUTAS SON BUENAS 
-0.8553 RUTAS SON CONGESTIONADAS 
-1.1563 RUTAS SON FÁCILES 
-0.8553 RUTAS SON INTERMITENTES 
-0.8553 RUTAS SON LENTAS 
-1.1563 RUTAS SON LISAS 
-1.1563 RUTAS SON RÁPIDAS 
-0.8553 RUTAS SON ÁSPERAS 
-0.0512 RUTAS ÁSPERAS </s> 
-0.0792 RÁPIDA 15TH AVENUE 
-0.0039 RÁPIDA </s> <s> 
-0.0022 RÁPIDA ADEMÁS DEL 
-0.0792 RÁPIDA ASTER COURT 
-0.0792 RÁPIDA AVENUE O 
-0.0792 RÁPIDA BRIGHTON 4TH 
-0.0792 RÁPIDA DEARBORN COURT 
-1.0043 RÁPIDA DEL 15TH 
-1.0043 RÁPIDA DEL ASTER 
-1.0043 RÁPIDA DEL AVENUE 
-1.0043 RÁPIDA DEL BRIGHTON 
-1.0043 RÁPIDA DEL DEARBORN 
-1.0043 RÁPIDA DEL ELMWOOD 
-1.0043 RÁPIDA DEL MC 
-1.0043 RÁPIDA DEL OLD 
-1.0043 RÁPIDA DEL PAERDEGAT 
-1.0043 RÁPIDA DEL SKIDMORE 
-0.0792 RÁPIDA ELMWOOD AVENUE 
-0.0792 RÁPIDA MC GUINNESS 
-0.0792 RÁPIDA OLD MILL 
-0.0792 RÁPIDA PAERDEGAT 7TH 
-0.0792 RÁPIDA SKIDMORE PLACE 
-0.0086 RÁPIDAS </s> <s> 
-0.1761 RÁPIDO 15TH AVENUE 
-0.0102 RÁPIDO </s> <s> 
-0.0107 RÁPIDO ADEMÁS DEL 
-0.1761 RÁPIDO ASTER COURT 
-0.1761 RÁPIDO AVENUE O 
-0.1761 RÁPIDO BRIGHTON 4TH 
-0.1761 RÁPIDO DEARBORN COURT 
-1.0212 RÁPIDO DEL 15TH 
-1.0212 RÁPIDO DEL ASTER 
-1.0212 RÁPIDO DEL AVENUE 
-1.0212 RÁPIDO DEL BRIGHTON 
-1.0212 RÁPIDO DEL DEARBORN 
-1.0212 RÁPIDO DEL ELMWOOD 
-1.0212 RÁPIDO DEL MC 
-1.0212 RÁPIDO DEL OLD 
-1.0212 RÁPIDO DEL PAERDEGAT 
-1.0212 RÁPIDO DEL SKIDMORE 
-0.1761 RÁPIDO ELMWOOD AVENUE 
-0.1761 RÁPIDO MC GUINNESS 
-0.1761 RÁPIDO OLD MILL 
-0.1761 RÁPIDO PAERDEGAT 7TH 
-0.1761 RÁPIDO SKIDMORE PLACE 
-0.0414 RÁPIDOS </s> <s> 
-0.1761 SIGA </s> <s> 
-0.0495 SKIDMORE PLACE </s> 
-0.9768 SKIDMORE PLACE ES 
-0.2148 SON ATESTADAS </s> 
-0.9138 SON ATESTADAS AHORA 
-0.6128 SON ATESTADAS LAS 
-0.2553 SON ATESTADOS </s> 
-0.9542 SON ATESTADOS AHORA 
-0.6532 SON ATESTADOS LOS 
-0.0280 SON BUENAS </s> 
-0.1249 SON BUENOS </s> 
-0.2148 SON CONGESTIONADAS </s> 
-0.9138 SON CONGESTIONADAS AHORA 
-0.6128 SON CONGESTIONADAS LAS 
-0.2553 SON CONGESTIONADOS </s> 
-0.9542 SON CONGESTIONADOS AHORA 
-0.6532 SON CONGESTIONADOS LOS 
-0.0235 SON FÁCILES DE 
-0.2131 SON INTERMITENTES </s> 
-0.9120 SON INTERMITENTES AHORA 
-0.6902 SON INTERMITENTES LAS 
-1.3892 SON INTERMITENTES LOS 
-0.7038 SON LAS AUTOPISTAS 
-0.7038 SON LAS CALLES 
-0.7038 SON LAS CARRETERAS 
-0.7038 SON LAS RUTAS 
-0.7038 SON LAS VÍAS 
-0.2148 SON LENTAS </s> 
-0.9138 SON LENTAS AHORA 
-0.6128 SON LENTAS LAS 
-0.2553 SON LENTOS </s> 
-0.9542 SON LENTOS AHORA 
-0.6532 SON LENTOS LOS 
-0.0280 SON LISAS </s> 
-0.1249 SON LISOS </s> 
-0.0235 SON LOS CAMINOS 
-0.0280 SON RÁPIDAS </s> 
-0.1249 SON RÁPIDOS </s> 
-0.7038 SON UNAS AUTOPISTAS 
-0.7038 SON UNAS CALLES 
-0.7038 SON UNAS CARRETERAS 
-0.7038 SON UNAS RUTAS 
-0.7038 SON UNAS VÍAS 
-0.0235 SON UNOS CAMINOS 
-0.2148 SON ÁSPERAS </s> 
-0.9138 SON ÁSPERAS AHORA 
-0.6128 SON ÁSPERAS LAS 
-0.2553 SON ÁSPEROS </s> 
-0.9542 SON ÁSPEROS AHORA 
-0.6532 SON ÁSPEROS LOS 
-0.0011 STREET </s> <s> 
-1.3892 STREET ES ATESTADO 
-1.6902 STREET ES BUENO 
-1.3892 STREET ES CONGESTIONADO 
-1.6902 STREET ES EL 
-1.6902 STREET ES FÁCIL 
-1.3892 STREET ES INTERMITENTE 
-1.3892 STREET ES LENTO 
-1.6902 STREET ES LISO 
-0.7360 STREET ES MÁS 
-1.6902 STREET ES RÁPIDO 
-1.0881 STREET ES UN 
-0.3892 STREET ES UNA 
-1.3892 STREET ES ÁSPERO 
-0.0669 SÍ </s> <s> 
-0.0580 TRANSITAR 15TH AVENUE 
-0.0020 TRANSITAR </s> <s> 
-0.0018 TRANSITAR ADEMÁS DEL 
-0.0580 TRANSITAR ASTER COURT 
-0.0580 TRANSITAR AVENUE O 
-0.0580 TRANSITAR BRIGHTON 4TH 
-0.0580 TRANSITAR DEARBORN COURT 
-1.0036 TRANSITAR DEL 15TH 
-1.0036 TRANSITAR DEL ASTER 
-1.0036 TRANSITAR DEL AVENUE 
-1.0036 TRANSITAR DEL BRIGHTON 
-1.0036 TRANSITAR DEL DEARBORN 
-1.0036 TRANSITAR DEL ELMWOOD 
-1.0036 TRANSITAR DEL MC 
-1.0036 TRANSITAR DEL OLD 
-1.0036 TRANSITAR DEL PAERDEGAT 
-1.0036 TRANSITAR DEL SKIDMORE 
-0.0580 TRANSITAR ELMWOOD AVENUE 
-0.0580 TRANSITAR MC GUINNESS 
-0.0580 TRANSITAR OLD MILL 
-0.0580 TRANSITAR PAERDEGAT 7TH 
-0.0580 TRANSITAR SKIDMORE PLACE 
-1.6946 UN CAMINO ATESTADO 
-0.6532 UN CAMINO BUENO 
-1.6946 UN CAMINO CONGESTIONADO 
-0.6532 UN CAMINO FÁCIL 
-1.6946 UN CAMINO INTERMITENTE 
-1.6946 UN CAMINO LENTO 
-0.6532 UN CAMINO LISO 
-0.6532 UN CAMINO RÁPIDO 
-1.6946 UN CAMINO ÁSPERO 
-1.6946 UNA AUTOPISTA ATESTADA 
-0.6532 UNA AUTOPISTA BUENA 
-1.6946 UNA AUTOPISTA CONGESTIONADA 
-0.6532 UNA AUTOPISTA FÁCIL 
-1.6946 UNA AUTOPISTA INTERMITENTE 
-1.6946 UNA AUTOPISTA LENTA 
-0.6532 UNA AUTOPISTA LISA 
-0.6532 UNA AUTOPISTA RÁPIDA 
-1.6946 UNA AUTOPISTA ÁSPERA 
-1.6946 UNA CALLE ATESTADA 
-0.6532 UNA CALLE BUENA 
-1.6946 UNA CALLE CONGESTIONADA 
-0.6532 UNA CALLE FÁCIL 
-1.6946 UNA CALLE INTERMITENTE 
-1.6946 UNA CALLE LENTA 
-0.6532 UNA CALLE LISA 
-0.6532 UNA CALLE RÁPIDA 
-1.6946 UNA CALLE ÁSPERA 
-1.6946 UNA CARRETERA ATESTADA 
-0.6532 UNA CARRETERA BUENA 
-1.6946 UNA CARRETERA CONGESTIONADA 
-0.6532 UNA CARRETERA FÁCIL 
-1.6946 UNA CARRETERA INTERMITENTE 
-1.6946 UNA CARRETERA LENTA 
-0.6532 UNA CARRETERA LISA 
-0.6532 UNA CARRETERA RÁPIDA 
-1.6946 UNA CARRETERA ÁSPERA 
-1.6946 UNA RUTA ATESTADA 
-0.6532 UNA RUTA BUENA 
-1.6946 UNA RUTA CONGESTIONADA 
-0.6532 UNA RUTA FÁCIL 
-1.6946 UNA RUTA INTERMITENTE 
-1.6946 UNA RUTA LENTA 
-0.6532 UNA RUTA LISA 
-0.6532 UNA RUTA RÁPIDA 
-1.6946 UNA RUTA ÁSPERA 
-1.6946 UNA VÍA ATESTADA 
-0.6532 UNA VÍA BUENA 
-1.6946 UNA VÍA CONGESTIONADA 
-0.6532 UNA VÍA FÁCIL 
-1.6946 UNA VÍA INTERMITENTE 
-1.6946 UNA VÍA LENTA 
-0.6532 UNA VÍA LISA 
-0.6532 UNA VÍA RÁPIDA 
-1.6946 UNA VÍA ÁSPERA 
-0.9777 UNAS AUTOPISTAS ATESTADAS 
-0.9777 UNAS AUTOPISTAS BUENAS 
-0.9777 UNAS AUTOPISTAS CONGESTIONADAS 
-0.9777 UNAS AUTOPISTAS FÁCILES 
-0.9777 UNAS AUTOPISTAS INTERMITENTES 
-0.9777 UNAS AUTOPISTAS LENTAS 
-0.9777 UNAS AUTOPISTAS LISAS 
-0.9777 UNAS AUTOPISTAS RÁPIDAS 
-0.9777 UNAS AUTOPISTAS ÁSPERAS 
-0.9777 UNAS CALLES ATESTADAS 
-0.9777 UNAS CALLES BUENAS 
-0.9777 UNAS CALLES CONGESTIONADAS 
-0.9777 UNAS CALLES FÁCILES 
-0.9777 UNAS CALLES INTERMITENTES 
-0.9777 UNAS CALLES LENTAS 
-0.9777 UNAS CALLES LISAS 
-0.9777 UNAS CALLES RÁPIDAS 
-0.9777 UNAS CALLES ÁSPERAS 
-0.9777 UNAS CARRETERAS ATESTADAS 
-0.9777 UNAS CARRETERAS BUENAS 
-0.9777 UNAS CARRETERAS CONGESTIONADAS 
-0.9777 UNAS CARRETERAS FÁCILES 
-0.9777 UNAS CARRETERAS INTERMITENTES 
-0.9777 UNAS CARRETERAS LENTAS 
-0.9777 UNAS CARRETERAS LISAS 
-0.9777 UNAS CARRETERAS RÁPIDAS 
-0.9777 UNAS CARRETERAS ÁSPERAS 
-0.9777 UNAS RUTAS ATESTADAS 
-0.9777 UNAS RUTAS BUENAS 
-0.9777 UNAS RUTAS CONGESTIONADAS 
-0.9777 UNAS RUTAS FÁCILES 
-0.9777 UNAS RUTAS INTERMITENTES 
-0.9777 UNAS RUTAS LENTAS 
-0.9777 UNAS RUTAS LISAS 
-0.9777 UNAS RUTAS RÁPIDAS 
-0.9777 UNAS RUTAS ÁSPERAS 
-0.9777 UNAS VÍAS ATESTADAS 
-0.9777 UNAS VÍAS BUENAS 
-0.9777 UNAS VÍAS CONGESTIONADAS 
-0.9777 UNAS VÍAS FÁCILES 
-0.9777 UNAS VÍAS INTERMITENTES 
-0.9777 UNAS VÍAS LENTAS 
-0.9777 UNAS VÍAS LISAS 
-0.9777 UNAS VÍAS RÁPIDAS 
-0.9777 UNAS VÍAS ÁSPERAS 
-0.9777 UNOS CAMINOS ATESTADOS 
-0.9777 UNOS CAMINOS BUENOS 
-0.9777 UNOS CAMINOS CONGESTIONADOS 
-0.9777 UNOS CAMINOS FÁCILES 
-0.9777 UNOS CAMINOS INTERMITENTES 
-0.9777 UNOS CAMINOS LENTOS 
-0.9777 UNOS CAMINOS LISOS 
-0.9777 UNOS CAMINOS RÁPIDOS 
-0.9777 UNOS CAMINOS ÁSPEROS 
-1.1285 USTED QUE 15TH 
-1.1285 USTED QUE ASTER 
-1.1285 USTED QUE AVENUE 
-1.1285 USTED QUE BRIGHTON 
-1.1285 USTED QUE DEARBORN 
-1.1285 USTED QUE ELMWOOD 
-0.6848 USTED QUE LAS 
-1.3838 USTED QUE LOS 
-1.1285 USTED QUE MC 
-1.1285 USTED QUE OLD 
-1.1285 USTED QUE PAERDEGAT 
-1.1285 USTED QUE SKIDMORE 
-0.0072 VÍA ADEMÁS DEL 
-0.8573 VÍA ATESTADA </s> 
-0.0792 VÍA ATESTADA ADEMÁS 
-1.7482 VÍA BUENA 15TH 
-0.5721 VÍA BUENA </s> 
-0.2711 VÍA BUENA ADEMÁS 
-1.7482 VÍA BUENA ASTER 
-1.7482 VÍA BUENA AVENUE 
-1.7482 VÍA BUENA BRIGHTON 
-1.7482 VÍA BUENA DEARBORN 
-1.7482 VÍA BUENA ELMWOOD 
-1.7482 VÍA BUENA MC 
-1.7482 VÍA BUENA OLD 
-1.7482 VÍA BUENA PAERDEGAT 
-1.7482 VÍA BUENA SKIDMORE 
-0.8573 VÍA CONGESTIONADA </s> 
-0.0792 VÍA CONGESTIONADA ADEMÁS 
-1.4098 VÍA ES ATESTADA 
-1.4098 VÍA ES BUENA 
-1.4098 VÍA ES CONGESTIONADA 
-1.4098 VÍA ES FÁCIL 
-1.4098 VÍA ES INTERMITENTE 
-1.2685 VÍA ES LA 
-1.4098 VÍA ES LENTA 
-1.4098 VÍA ES LISA 
-0.2271 VÍA ES MÁS 
-1.4098 VÍA ES RÁPIDA 
-1.4098 VÍA ES ÁSPERA 
-0.0078 VÍA FÁCIL DE 
-0.0212 VÍA HAY ADEMÁS 
-0.8573 VÍA INTERMITENTE </s> 
-0.0792 VÍA INTERMITENTE ADEMÁS 
-0.8573 VÍA LENTA </s> 
-0.0792 VÍA LENTA ADEMÁS 
-1.7482 VÍA LISA 15TH 
-0.5721 VÍA LISA </s> 
-0.2711 VÍA LISA ADEMÁS 
-1.7482 VÍA LISA ASTER 
-1.7482 VÍA LISA AVENUE 
-1.7482 VÍA LISA BRIGHTON 
-1.7482 VÍA LISA DEARBORN 
-1.7482 VÍA LISA ELMWOOD 
-1.7482 VÍA LISA MC 
-1.7482 VÍA LISA OLD 
-1.7482 VÍA LISA PAERDEGAT 
-1.7482 VÍA LISA SKIDMORE 
-1.7482 VÍA RÁPIDA 15TH 
-0.5721 VÍA RÁPIDA </s> 
-0.2711 VÍA RÁPIDA ADEMÁS 
-1.7482 VÍA RÁPIDA ASTER 
-1.7482 VÍA RÁPIDA AVENUE 
-1.7482 VÍA RÁPIDA BRIGHTON 
-1.7482 VÍA RÁPIDA DEARBORN 
-1.7482 VÍA RÁPIDA ELMWOOD 
-1.7482 VÍA RÁPIDA MC 
-1.7482 VÍA RÁPIDA OLD 
-1.7482 VÍA RÁPIDA PAERDEGAT 
-1.7482 VÍA RÁPIDA SKIDMORE 
-0.8573 VÍA ÁSPERA </s> 
-0.0792 VÍA ÁSPERA ADEMÁS 
-0.0792 VÍAS </s> <s> 
-0.0792 VÍAS AHORA </s> 
-0.0512 VÍAS ATESTADAS </s> 
-0.0580 VÍAS BUENAS </s> 
-0.0512 VÍAS CONGESTIONADAS </s> 
-0.0580 VÍAS FÁCILES DE 
-0.0512 VÍAS INTERMITENTES </s> 
-0.0512 VÍAS LENTAS </s> 
-0.0580 VÍAS LISAS </s> 
-0.0580 VÍAS RÁPIDAS </s> 
-0.8553 VÍAS SON ATESTADAS 
-1.1563 VÍAS SON BUENAS 
-0.8553 VÍAS SON CONGESTIONADAS 
-1.1563 VÍAS SON FÁCILES 
-0.8553 VÍAS SON INTERMITENTES 
-0.8553 VÍAS SON LENTAS 
-1.1563 VÍAS SON LISAS 
-1.1563 VÍAS SON RÁPIDAS 
-0.8553 VÍAS SON ÁSPERAS 
-0.0512 VÍAS ÁSPERAS </s> 
-0.1761 Y ADEMÁS </s> 
-0.0072 ÁSPERA </s> <s> 
-0.0022 ÁSPERA ADEMÁS DEL 
-1.0043 ÁSPERA DEL 15TH 
-1.0043 ÁSPERA DEL ASTER 
-1.0043 ÁSPERA DEL AVENUE 
-1.0043 ÁSPERA DEL BRIGHTON 
-1.0043 ÁSPERA DEL DEARBORN 
-1.0043 ÁSPERA DEL ELMWOOD 
-1.0043 ÁSPERA DEL MC 
-1.0043 ÁSPERA DEL OLD 
-1.0043 ÁSPERA DEL PAERDEGAT 
-1.0043 ÁSPERA DEL SKIDMORE 
-0.0066 ÁSPERAS </s> <s> 
-0.0792 ÁSPERAS AHORA </s> 
-0.7404 ÁSPERAS LAS AUTOPISTAS 
-0.7404 ÁSPERAS LAS CALLES 
-0.7404 ÁSPERAS LAS CARRETERAS 
-0.7404 ÁSPERAS LAS RUTAS 
-0.7404 ÁSPERAS LAS VÍAS 
-0.3010 ÁSPERO 15TH AVENUE 
-0.0102 ÁSPERO </s> <s> 
-0.0107 ÁSPERO ADEMÁS DEL 
-0.3010 ÁSPERO ASTER COURT 
-0.3010 ÁSPERO AVENUE O 
-0.3010 ÁSPERO BRIGHTON 4TH 
-0.3010 ÁSPERO DEARBORN COURT 
-1.0212 ÁSPERO DEL 15TH 
-1.0212 ÁSPERO DEL ASTER 
-1.0212 ÁSPERO DEL AVENUE 
-1.0212 ÁSPERO DEL BRIGHTON 
-1.0212 ÁSPERO DEL DEARBORN 
-1.0212 ÁSPERO DEL ELMWOOD 
-1.0212 ÁSPERO DEL MC 
-1.0212 ÁSPERO DEL OLD 
-1.0212 ÁSPERO DEL PAERDEGAT 
-1.0212 ÁSPERO DEL SKIDMORE 
-0.3010 ÁSPERO ELMWOOD AVENUE 
-0.3010 ÁSPERO MC GUINNESS 
-0.3010 ÁSPERO OLD MILL 
-0.3010 ÁSPERO PAERDEGAT 7TH 
-0.3010 ÁSPERO SKIDMORE PLACE 
-0.0322 ÁSPEROS </s> <s> 
-0.3010 ÁSPEROS AHORA </s> 
-0.1761 ÁSPEROS LOS CAMINOS 

\end\
